[[[0.0012014673694935483, 0.0010971549956467663, 0.0010683976022786473, 0.0001507165265829262, 0.0002473334355769286, 0.00020317373643620291, 0.0010802817743833172, 0.0003180180755112273, 0.0004606117476163164, 0.00036101750616224465], [0.0012216389951827237, 0.0011718970767176917, 0.00032230530017278105, 0.00037703645853400674, 0.0009615045150255882, 0.0005478037514850614, 0.0010699598550459358, 0.0006586823072212201, 8.916644447320434e-05, 0.000569786305949587], [0.0004571138856066807, 0.00010921240028453705, 0.0004252405352474041, 0.0007521902481362921, 0.0006644209474826589, 0.000782013086849853, 0.0006386603810826559, 0.0007398577012659073, 0.0010415994925597417, 6.0572664790599924e-05], [0.0007032796711015653, 6.065498602061193e-05, 0.0009216111392998704, 0.0008357871602885145, 0.00022980538028008222, 0.000950767893314038, 0.0006231986906123413, 0.0007224440922503834, 0.0011966933459246275, 0.00028235768495996495], [0.0008690307244524275, 0.0005071006960150273, 0.0001120001063681317, 0.0004115539354159216, 0.0007527325333143092, 0.0007415183685718688, 0.0012673174665248617, 0.0005046392248708829, 0.0008696118887057636, 0.00011165064621390493], [0.00012524891249426226, 0.0009527546269284746, 0.0009828115423357936, 0.0004371499371418932, 8.466882499137428e-05, 0.0002581861726549807, 0.0008146704693113458, 0.00016638035880212786, 0.0002862293967416698, 0.0001304312226862249], [0.0012162675855966853, 0.00010595164933048333, 0.0012099533324295443, 0.0004208377861744193, 0.0007075195980126336, 0.0012302263884547155, 0.00030228392295228755, 0.00016288050580529873, 0.00045034515543336366, 0.0010224909009906899], [0.0007152760841122308, 9.991352129602612e-05, 5.5579550019189954e-05, 0.0011156893110902464, 0.0007549391117970572, 0.0007428285572011415, 0.0010876428778078303, 0.0006019737319719268, 0.0003211825373991284, 0.001017459657240286], [0.000407733211650667, 0.0003026295008888134, 0.0011220371023985727, 0.00015077226148619023, 0.0007270919264565133, 0.00012894328224983897, 0.001232117481328292, 0.0011998828239024278, 0.0012551267265072021, 7.334501307247553e-05], [0.00019863755816334442, 0.001045838316545518, 0.0001303010392453526, 0.0005331662984607626, 0.0005374737772007417, 0.001172916455363245, 0.00077628706059359, 0.0004596542568536991, 0.00022494557283385196, 0.0005994262086348921], [0.0008359670098195031, 8.628593256820775e-05, 0.0008402940338987216, 0.00010992372032660207, 0.0004270018528790348, 0.0010037453793170952, 0.0011336998532851994, 5.41517152695457e-05, 0.0008421446555020096, 0.0004761051798901803], [0.0001304676510325431, 0.0004348246386999036, 0.0009988362867005974, 0.0009240269543831823, 0.00011424747487072833, 0.0002954895265677794, 0.0011202389215106223, 0.0007208127564722386, 0.0012410636267212525, 0.0006251716315864802], [0.00022018531177878928, 0.0011341191453182167, 0.0006675564462766863, 0.000339207369809011, 0.0010188757542899517, 0.0009582999167524998, 0.0006709518121802502, 0.0010503897752631428, 0.0010553067243742904, 0.000723383803869625], [0.0007007784989831096, 0.0005546915021684946, 0.0010984081617721865, 0.001025791453874798, -0.0005378986230904784, 0.0007357962868680905, 0.00036485418908598836, 0.0001990429558899325, 0.0006999493507080863, 0.00020986811297707956], [0.00024173006737954918, 0.0005367657080636209, 0.0007473144796028445, 0.0005504161573421321, 0.0008178751543275903, 0.001299156518513975, 0.0009381525142231427, 0.0006626755799467385, 0.000662511970329744, 0.0005728291842178136], [0.0011229614611232238, 0.00020407826319819306, 0.0005373951685249582, 4.191771352520148e-05, 0.0005681902712543368, 0.0012748787615781772, 1.3862670758387409e-05, 0.0010735118006399893, 0.0004362956282660659, 0.0012087698692252096], [0.00044668507340302, 0.001215900775334909, 0.0006400874692735046, 1.456019011866194e-05, 0.0007902496768029847, 0.00036410217967364845, 0.000407901572813483, 6.158875687005787e-05, 0.00019351946041651626, 0.0004477413584037639], [0.0011207138846163003, 0.0010224117831094273, 0.0010071886177123162, 0.00029466850249248387, 0.0011527768134678206, 0.0006046442385294292, 0.0007063981258009468, 0.0012273994126171875, 0.00022880221751810784, 0.0006504595696272806], [0.0010011987655105887, 0.0008168189685609911, 0.0006195486567888127, 7.839428727714784e-05, 0.0003970120100913659, 0.0011787120183031385, 0.0005343238611874434, 0.000600212841062091, 0.0006865889634054308, 0.00026042274390707603], [0.0010437700550298818, 0.0012505685589675839, 0.00013343864460994126, 0.0009027627850044106, 0.000519726920802834, 0.0007466154229175927, 0.0008744341058764298, 0.0004663274441672488, 0.0011284280401853185, 0.0009267516954262283], [0.00035028994079138603, 0.0001004525566594303, 2.7672753330083673e-05, 0.0006312711497512375, 0.0009665507684254366, 2.3412634802286e-05, 0.0005030081553492985, 0.0007581787020716867, 0.0011179272273011472, 0.0008631428851913037], [0.00022405903070704653, 0.0007225160372821353, 0.0011404020146440735, 0.00035334248406675644, 0.0005126707657485177, 0.0009058093782749608, 0.00012250999919646374, 0.00018193885318168256, 4.294028197221919e-05, 0.000156861752830818], [0.0011760138026592271, 0.000446867202928475, 0.0003465356454668136, 0.00010884095419134009, 0.0008686031936207202, 0.000996056800536261, 0.0007629949490823442, 0.00024035257785505002, 0.000530359747423776, 0.0009214511290493983], [0.0005660512330384426, 0.00019264336208905727, 0.0007102464322455289, 0.0011359353628811646, 0.000442869803019822, 0.0005502719942855528, 3.114719561225535e-05, 0.0010886741125682694, 0.0005843595807588518, 0.0009588490643755452], [0.0008707990458010662, 0.0009030073070643946, 0.001173828594725145, 0.0007446258182042282, 0.0009976117112752616, 0.0005668965379496914, 0.0004585584156198635, 0.0011210594488649187, 1.3785655858156617e-05, 0.0007814166722010723], [0.0003817098125118195, 0.00026160281715016507, 0.0003706984095504585, 0.0001657431638543668, 0.0008208081710036964, 0.000676959074458398, 0.0007700675046279954, 0.0010562216683186916, 3.980325290813784e-06, 9.739701454593451e-05], [0.00030331894898783185, 0.0003610803895119918, 0.0010490233526903512, 5.626678680096491e-05, 0.0005401026613397464, 0.0012518355342692592, 0.00041679316509450425, 0.0011388519945321352, 0.0010790207632647164, 0.0008315098561266418], [0.00046753717006417386, 0.00048378373633341167, 0.0003885253367820791, 0.0005909819123576627, 0.0010892479694316253, 0.00029531193222424103, 0.00047526015954381335, 0.00042763733950217277, 0.0009185751834171593, 0.0007000492985692497], [0.0010676845125888637, 0.00010438974808788253, 0.00030231506797805796, 0.0009783431640216925, 0.001109377532586392, 0.001231904289143598, 7.9338840960015e-05, 0.00025145361684681864, 0.00032062876418680037, 0.0011225029221029813], [0.000635647134238078, 0.0009633982559580847, 0.00046726172791585017, 0.0007082674645723306, 0.001014819469652502, 0.0006618092549563015, 0.0009459637502576755, 0.0007586926430067293, 0.000631418226378367, 0.0004316906543947208], [0.0002454434067232068, 0.00046384525651052284, 0.0004566392721521909, 0.0011137528638890779, 0.001208041685928739, 0.0011009806112661357, 0.0008096105673415821, 0.000527312713319899, 3.581162740243708e-06, 0.0002915809231462083], [0.00033945203978065367, 0.00048718594912755254, 0.000971356594451108, 0.001238226408129399, 0.0006147886501818144, 0.0011539641447022048, 0.0004736079079994708, 0.000571319544808917, 0.0008509709331514367, 0.001035660995730769], [0.001101011467162691, 0.00040494086744972247, 0.0008146467655438805, 0.00041838552378330385, 0.00035297246996656627, 0.0005211159739692475, 0.0011192202924194836, 0.00029664872563840244, 0.00010928687104827796, 0.00016988157487311762], [0.0009567160765757914, 0.00013758446696596546, 0.0008097336238065369, 0.001063786735838508, 0.0001866791530130469, 0.00032527272269357684, 0.0010383028553946191, 0.0009177078148529199, 0.00042591539483684314, 0.0011418004361830793], [0.000822090224302283, 0.00044739306767917534, -0.00047085203906731233, 0.0009573637300354152, -0.0008250101671267237, -0.00013364340127500993, 0.0007847624534543418, 0.00031120998941008946, 0.0005978666788007916, 0.0002802459465800246], [0.001063915155736899, 0.0006891201363938852, -0.0013022009861530619, 0.0004612690235597364, -0.0016175944946280356, -0.0003152627978781774, 0.0031548623337360666, 0.0005275039211741754, 0.0012708804917354656, 0.00038589949346201435], [0.0009969758685858994, 0.0003649344432111888, -0.0011347003771237916, 0.0008278320056894932, -0.002081009125753434, 0.0009186366897062924, 0.004728498654580873, 0.0009339523922831361, 0.000633718276847502, -0.00011054471038555614], [9.971138995063939e-05, 0.0001488678824599137, -0.0017496064495729925, 0.0013724185304583199, -0.0033909926179080895, 0.0019023267652191504, 0.004965650446127701, 0.0010690102537408905, 0.0007948427633663591, 0.000893236916114033], [-1.9490622559570558e-05, 2.587526389853253e-06, -0.003540772140983341, 0.0013418813322325555, -0.005903581771117889, 0.0010357360953804151, 0.008172640119063141, 3.3500430018959156e-05, 0.0008803120522689752, -0.0004613933216837776], [0.0015357418713148369, -0.0007995002174387096, -0.005036481716933238, 0.002154504857259359, -0.006112128661321072, 0.001293366476364297, 0.008762780796898706, -0.0002722845806929994, 0.0014424008105224644, -0.0010449286781360216], [0.0014212112778505587, -0.0004534730905229396, -0.00527712179779129, 0.0021138771707353036, -0.006286168634342188, -9.940777471877748e-05, 0.011248568786265397, -0.0006433498040117816, 0.00044677303288078054, -0.001291783195872687], [0.001512748029798696, -0.0008106720497964015, -0.004663884410808554, 0.002474749302244591, -0.00626119329078767, -0.001378104913337514, 0.009488170286831231, 0.0007859820710826904, 0.0007383371980224851, -0.0008025444340907333], [-0.0007899039601197999, -0.0013149210717373098, -0.0033065487432751275, 0.002630192198817166, -0.004122599793422833, 0.00010819024519742716, 0.0071024599113737, 0.000610703291926006, 0.0018180103635492483, -0.0004148201530184763], [-0.0012022235804226163, -0.001153868659843489, -0.002566925863528635, 0.0019332373273348977, -0.003705878029206746, -0.0001078901896955495, 0.0054998892941670995, 0.0001039052151178677, 0.0005777863065263662, -0.001091894679293547], [-0.0009986683026956145, -0.0013150085127342339, 0.0010710091654341776, 0.002148124958115078, -0.005048868627993131, -8.637983723897304e-05, 0.004281512141190901, -0.0010779482866084761, 0.001094332157233551, -0.00019360308113140144], [-0.0006061864333102253, -0.0009278811762657411, -0.0017515650159017188, 0.0023750965855111245, -0.003553402124964896, -4.922214482227208e-05, 0.007269348245300092, 0.0003123322548883481, 0.00015700116285013326, -0.0008557369641621539], [0.0001953082946196907, -0.0006887971927429772, -0.002423717574985073, 0.002650009502038875, -0.002555642991596681, 0.0001283880149182047, 0.0061179702983737766, 0.001138741091465023, -0.00015867752667645353, -0.0009296039152110229], [0.000566937959531869, -0.0004187988700542185, -0.0008367829306824142, 0.001112022159723296, -0.0021603976530586945, -0.0003896816114146243, 0.0044769490770237945, 0.0004270961128599062, 0.0005564466518062117, 0.000367111864507891], [0.00024279452765839268, -0.0008178613098581799, -0.001038180148211568, 0.00038462020663102914, -0.0004296748759548112, 0.0004003401170738947, 0.0037277130453961162, 0.0012954073378980652, -0.0002537307905429109, -0.00022294560696228154], [0.000716174645990758, -3.6891359384650995e-07, -1.0573874171319718e-06, 0.0007418762586940914, 0.00022217986213068675, 0.0008771518352411455, 0.002781506512617246, 0.0008947978089143899, -0.0003018845291527766, 0.0008608532282447561], [0.0010089440891997163, 0.00015063212145338906, 0.0006159149131425021, 0.0014556087988921316, -0.0004869957721204789, 0.00030610165747541827, 0.0010505909765464237, 0.00021048117460932528, 0.0009416621875329412, 0.0004683509546619941], [0.0008665191662312753, 0.0008481068536599896, 0.0010692569540332812, 0.0004917702719427397, -0.0003130947024688982, 4.165153137166848e-05, 0.0004064436392004187, 0.00034975325188210725, 0.0006414225943899835, 0.00026283440090177335], [0.0011451152652359935, 0.0007914561158682793, 0.000627587463773157, 0.0001765815938322095, 0.0012484790328188722, 0.0011087810470488447, 0.001257767554838729, 0.0006987476083595574, 0.0004583968210058059, 0.0003686707706022459], [0.00019930457762311647, 0.0009965441869333386, 0.0003989709556227173, 0.0001894282941956426, 0.0006502082549625256, 0.0007568548188372671, 0.0011550689394901185, 0.0006938698654293002, 0.00014307574794041752, 0.0007668026270449523], [0.001243634517042769, 0.0009069885052852404, 0.00011435222266177234, 0.00029147886271284877, 0.0011758681756857071, 0.00021655545366185914, 0.0011004756370764197, 0.0012173768265388127, 0.000710092804791933, 0.0008738490787661399], [0.0008474199346265738, 0.0009405286241394934, 0.0006313667634562501, 0.0008045802390741538, 0.00017307599111165829, 0.00042504960331751643, 0.00012372588662726576, 0.0011362629703493797, 0.00035488571191187303, 0.0004137337243329952], [0.0010299377750968774, 0.0002930335137216456, 0.0006027382758206047, 0.0010255668696259393, 0.000428170805349277, 0.00022912979495319407, 0.0011540098035338407, 0.000611322913729581, 2.2481978956262497e-05, 0.0009458303327268603], [9.691672100856552e-05, 4.444151133162805e-06, 0.0010771190306422262, 0.00010552741265234889, 5.586200094347863e-05, 0.0003280328365491081, 0.00027682731131219797, 0.0003983090667071431, 0.0007748726079480545, 0.0006481856744483358], [0.0010452985865558398, 0.0006678960144662397, 0.00030677658360532133, 0.0002872967284225268, 0.0008962949028110619, 0.0007722261300148671, 6.151652871318539e-05, 0.000995782069702896, 0.00012587666146184358, 0.0005444221188441537], [0.0009511945173959032, 0.0012170828287041073, 0.00030926755698998637, 0.00037020403620053027, 0.001044281377242673, 0.0012223917356135058, 0.0008924330476048015, 0.0005921061357629651, 0.0005522015682596566, 0.0007441147146591119], [0.0003733291234589745, 6.529270584696537e-05, 0.0007019227138816614, 0.0012319395806733664, 0.00010859380583040109, 0.00016686890682569413, 0.0010335579967570274, 0.0008375911445600762, 0.000396162232080706, 0.0009121010202641582], [0.0010553362096507035, 0.0012445589738538981, 0.0012138451919501553, 0.0007714639818604656, 0.00030574742214864486, 0.0010524740506472998, 0.0006917688913303571, 0.0006999654575605927, 0.0002282451979674823, 0.0009700106229396733], [-0.00024606732564518236, -0.00024704537015288446, -0.0006885415355634866, 0.0006948494363947815, -0.002239437028520795, 0.0010370924657931927, 0.002893419897688918, 0.0009103878715502975, 0.0012701994871813491, 3.2681689432912596e-05], [-0.00038305176172004894, -0.0004617239926826972, -0.002229491049953205, -0.0007328570710674257, -0.009496324942629088, 0.0019749086398168766, 0.006707872593607736, 0.0005369711473588246, 0.0019942377400555154, 0.0001683799989682924], [-0.0014520252596371425, -0.0019761599138658948, -0.005464321147978888, -0.0007293431097048676, -0.013758582451029781, 0.004935843961879134, 0.01360078391206532, -0.00014017998636866496, 0.0038013675997307086, 0.0013439159704105345], [-0.005196530490055101, -0.004399018354875054, -0.007065374723247847, 0.00010211512970255991, -0.020869690797053593, 0.007033462654606251, 0.021686387395937427, -0.0004321666783792595, 0.0023906414705230535, 0.002310468022705999], [-0.006339907938254136, -0.005818732579538877, -0.014512493212290888, 0.0019292289417820617, -0.033489780001834904, 0.007261303941869195, 0.036308693820284337, -0.0013444542959050968, 0.0031980317979783002, -0.0006056965649685499], [-0.0026541736675546805, -0.004828829613124547, -0.021374952259988672, 0.005951263076102428, -0.04223377706385847, 0.0015094237927120045, 0.04469598796759006, 0.0005117321533431454, 0.0032590119251201173, -0.0035094622623014454], [-0.004459968773839356, -0.0014430426282233304, -0.02982983015257833, 0.006090539658048776, -0.048624547959756785, -0.0038396725062099252, 0.0618761535224784, 0.0020038977176659047, 0.0021630528215619846, -0.007136521778727606], [-0.004865154100667974, -0.00175720642151206, -0.03849788517412714, 0.010706051857009359, -0.04888470946957128, -0.005824834080439985, 0.07705375816001836, 0.00631436487223979, 0.0006615753249581524, -0.010173325050908072], [-0.008743538983781054, -0.007703513978365102, -0.040990598605625185, 0.012582191215558381, -0.04408037717144444, -0.009116775647803353, 0.08004448113614852, 0.009961586610343744, -0.0005930460468554533, -0.009055399089370812], [-0.014189187341331264, -0.006990779909089445, -0.03784040472370462, 0.012421529194965359, -0.03819981080447793, -0.012562982341330544, 0.07444827432353122, 0.01035106791888867, 0.0010845743586126255, -0.010679553220003515], [-0.021220209892486866, -0.007531924903297716, -0.03902464052709396, 0.015647337479751514, -0.034951319104936915, -0.011409927129339296, 0.07445541582948424, 0.008044954523816443, 0.004133498481474355, -0.011510969353261074], [-0.01820563968758671, -0.007488598851554843, -0.037914164258677586, 0.018975980404080488, -0.028013476726718414, -0.008865789253008034, 0.06533341270966779, 0.008236315022200914, 0.005029393526737243, -0.01000617176856877], [-0.017684398987513374, -0.00980342510426053, -0.03304227605676673, 0.0148973261690271, -0.02193315667396845, -0.009770172625046756, 0.06067195301905194, 0.007393168898358132, 0.005746497733421549, -0.007199709243045307], [-0.01804818935890342, -0.011115400701205612, -0.02538943505187797, 0.011716975679835422, -0.014361100488963528, -0.011770425597605813, 0.052788892760155755, 0.009202642383628416, 0.003468405721227455, -0.007027659275980147], [-0.01326679220995036, -0.010982583413586463, -0.015011757533308688, 0.009658761843736744, -0.011519222852869023, -0.012074111786643946, 0.041850934020624085, 0.008187223970710946, 0.005843573954960221, -0.0019625075612265766], [-0.0074162017496901475, -0.008972841640572344, -0.009563381039322884, 0.006062184475570662, -0.00844548168707865, -0.010723245614757957, 0.034181979914667975, 0.006168524105282165, 0.005055684241728995, -0.0010047650206853039], [-0.0046795229765803515, -0.005647675471139976, -0.005244535956614533, 0.0036075366953195807, -0.005876562576794595, -0.006605356905861326, 0.021346265306255392, 0.003476122152256243, 0.0025973828724426477, 7.486535281687984e-06], [-0.0011474774650717938, -0.0016719197088609222, -0.0010175870021275869, 0.0018763246129276019, -0.0025784291376519564, -0.0032548921247190932, 0.00791152527949061, 0.0021550941440944345, 0.0007112668658426793, 0.0006074819623378902], [-0.0002980834236581674, -0.00048123520395540925, 0.0015080802339308237, 0.00107711016553747, -0.0009082474435432256, -0.00012595184635090468, 0.0038621660988296096, 0.0008373963956481439, 0.0006789227004254661, 0.0004629408453967184], [0.0007445406090210218, 0.00044933157671393537, 0.0008860187818038566, 0.001015472794501911, 3.0942970532177495e-05, 0.0004837207001606683, 0.0015131080819402224, 0.0008341718730056143, -0.00023472028752882521, 0.00033428054086001265], [0.0002449742042373377, 1.06418775673374e-05, 0.0011068077618448544, 0.0009498618565351762, 0.0002444626361992081, 0.0003870784730281855, 0.0010556004247584479, 0.0006415688887342522, 0.0005198637328946664, 0.0007366401239017697], [6.64273356413496e-05, 0.0005994242895857735, 0.0005761863169647225, 0.0008085592255754018, 0.000411606495117873, 5.924748624514145e-05, 0.00013703630647446142, 0.0006060324931295686, 0.0009742037478701577, 6.827357502438248e-05], [1.8146835206779932e-05, 0.0010101721734508532, 0.0004481583280066116, 0.0005559579464105996, 0.0006752332420457433, 0.001048112155603498, 0.0009291634751976139, 0.0004455961649571037, 0.0006364459297603128, 0.00041960402012807224], [0.000729689187728347, 0.001205818514735724, 0.0009374955321127641, 0.0011087933100242346, 0.0007141366259053352, 0.0009343085183460148, 0.0005643407029169782, 0.0011185677585851905, 0.0001578867403134553, 0.000877835928519591], [0.0008160912530643636, 0.0010382960678022924, 0.0003351341094926266, 0.0003028636611675758, 0.00012580899237315345, 0.0005886506275874703, 0.0011220788680669524, 0.0011905239207799395, 0.0006439069521322334, 0.00028998259386577377], [0.0006251717950538202, 0.0008472856016639842, 0.000504756437832342, 0.0009228326077545658, 0.00012323537974960925, 9.982977364269087e-05, 0.0010049754964735452, 0.0005080478462420583, 0.0008312933570972827, 0.0010677516715962567], [0.0006692466528123137, 0.0007732310286108034, 0.00018235464260396794, -6.04734076601571e-05, -0.00014769327467799366, 0.00027556215306896216, 0.0007079585334651845, 0.0007846068235850415, 0.000774786011150625, 0.0005229354309705161], [-0.0002683670860642004, 0.0006177842798846416, 0.0003081463827345761, 0.0013270956392163688, -0.0003955630914984812, 0.000733140648779539, 0.00021300062217089607, 0.0007617411704567739, 0.0015242007389052047, 0.000707195860610714], [-0.0014760866341857982, -0.0016943025123988505, -0.0003039037101443711, -0.0015657813900993246, -0.0034543962022574753, 0.0021854196136972355, 0.00257534044661274, 0.0012689926161533526, 0.002013762004310784, -0.0001593352803817357], [-0.0020262825528081702, -0.003838337587309369, 0.002950273859961983, -0.005265714493531571, -0.01097396875357688, 0.005006683624247345, 0.005735680800134951, 0.0027129922468702673, 0.0031759540054697617, 0.0005716009287229544], [-0.004799004429540854, -0.00817321902920219, 0.006188629232364999, -0.01030269487695025, -0.014824871531610865, 0.010424250840848649, 0.007441032917766708, 0.003336205497334967, 0.004574086690018896, 0.001836665253972334], [-0.010930621588731936, -0.012930617111612436, 0.011855156974607673, -0.016000821753243376, -0.02026173284410136, 0.012987654652749769, 0.011525099637901094, 0.004264167014913621, 0.006069650668003291, 0.0017288981839791208], [-0.009835617101694864, -0.017015264336263273, 0.013853986518962587, -0.015075817088404287, -0.032648306345675025, 0.012142856543705349, 0.017050955706502124, 0.004509392260421928, 0.007069626907213322, -0.0011296603605164387], [-0.003489345229892381, -0.012099892735984698, 0.009076508657207561, -0.008300122261467414, -0.033443270428955646, 0.004398378098414454, 0.014476702063185092, 0.0037393790160883196, 0.0077909689504236665, -0.004593115167328593], [-0.002757988410126705, -0.011529547279445156, 0.010706113329482882, -0.0005066804752683448, -0.035113672173281284, 0.003774918375408618, 0.01605618425696977, 0.007634969204444711, 0.006782102002321997, -0.007646250742129597], [0.0005102506206442223, -0.010223890920237667, 0.00805231998240782, 0.001718309040219459, -0.03911450343123593, 0.0015650179834697127, 0.02487016273612019, 0.009481645621543544, 0.007671486786508417, -0.007696947244768751], [-0.01083194542921175, -0.013124929730482803, -0.001784839712998208, 0.011860938673966587, -0.037750625152385336, -0.005954389273891835, 0.04209082865795019, 0.014358568409916925, 0.000133423454811839, -0.0090024374495915], [-0.015674839662940157, -0.01357960278492856, -0.0069123179832575165, 0.013125133124366127, -0.03558132784966534, -0.01345559340333872, 0.05245595555586406, 0.019622577913671016, -0.001501885418499497, -0.013280887169797683], [-0.01867582283149354, -0.017339114452120274, -0.005765931772431459, 0.0150096381543429, -0.03206834934634865, -0.017151633592337893, 0.06064565950562383, 0.021905090187238994, -0.005634655479463421, -0.012545442374709724], [-0.02755284296038105, -0.018171876250541737, -0.01433069064948601, 0.018473838316033057, -0.03385656662543489, -0.02185712986912709, 0.07940706102941603, 0.019711993924713834, -0.00946495110272747, -0.013329622579348664], [-0.03521286210650226, -0.024560891787617826, -0.02347101692634793, 0.019850709113731706, -0.030321287039994607, -0.020616651719651134, 0.10103907590597537, 0.018645770716192146, -0.008021732643920974, -0.01146234161413127], [-0.035880405187497036, -0.03384188102668582, -0.023770270046613324, 0.01910448266288119, -0.024284013312914354, -0.02767955101525926, 0.1070860409275749, 0.020308166599859595, -0.004410219625000618, -0.012446340057247592], [-0.03130328434031827, -0.033283582991605214, -0.02147361601111203, 0.02220304620912595, -0.019027494338402635, -0.028367228844422124, 0.09691208042256991, 0.016904474007186428, 0.0057074999286140906, -0.0056920579239188186], [-0.023743342998244488, -0.026579177825082446, -0.017839558265402837, 0.01740757240449005, -0.016981344823182486, -0.025531446815728887, 0.07474663616658062, 0.01158474173646524, 0.008115171994273798, -0.000983310818446421], [-0.01361600933554257, -0.0149793901054211, -0.01395792357252921, 0.009390943092853167, -0.010810063581195255, -0.01693388842064989, 0.04693001019674917, 0.006820424439453778, 0.008638762099491284, 0.002030253823215223], [-0.005700288711625831, -0.007423271033857698, -0.007979016351257274, 0.004896491648009486, -0.006145925134558492, -0.010191701639445296, 0.02413656376473392, 0.00253556363957403, 0.00578242552590736, 0.0027503538116362943], [-0.0017449371446170245, -0.004218499002356794, -0.0032063059503147666, 0.002738337524299955, -0.004319025815619094, -0.004444051342492326, 0.012472132038822149, 0.002049491579563684, 0.001990185672088524, 0.003005178498338171], [-0.00027526125568823204, -0.0005369947410732102, 0.001124989224287757, 0.0012968754346111265, 0.00042484710891403047, -0.0003955725946839904, 0.0014884321716399933, 0.0012480243016539515, 0.0006851754494813645, 0.0007711853010126266], [0.0012116518810657121, -0.0001338617105984246, 0.00039792692040230526, 0.0008985358638659057, 2.6412139341038047e-05, 0.0005987849428316275, 0.0008492044038850645, 0.00043841424598217363, 0.00027833205308914636, 0.0009872857442480632], [0.0006251629406594416, 0.0007327792591504471, 0.00021153186617294266, 0.000893990853551157, 0.0009504357790873629, 0.0008583001336062138, 0.0011727542175645857, 0.0007984564290450967, 0.0011849861803078195, 0.0008630393350262175], [0.00044013888390801554, 0.0008860383397623362, 0.00020380842800903217, 0.0012002598332131417, 2.032329923932998e-05, 0.0006478596071052585, 0.0007606761612311523, 0.001039176177488677, 0.00010531251699564071, 0.0008980336991659486], [0.0004443703749735488, 0.0007121045299040887, 0.0005401677204926603, 0.0012451265791169426, 3.265501207751445e-05, 0.0009189193548262483, 0.0002884856480358213, 0.0007588301190169048, 0.000706609064118731, 0.0010658661766000394], [0.0009087286494900581, 0.000807417682044356, -7.504513360276832e-05, 0.0012564807806829093, 0.0010651503912466908, 0.0011163402020282537, -6.452521530037402e-05, 0.0006423343287871147, 0.0010927190577091767, 0.0008531953909602884], [0.0008973424447277349, 0.000586134793144243, 0.0003785450829930436, 0.00146521619734244, 0.0004719700113934155, 0.0007188205204203777, 0.0001656785432195462, 0.0011748552288141816, 0.0012470299388081829, 0.00033892244735861306], [0.0001498483053483341, -0.00016808774722089866, -0.00031521598543329376, 0.0023208013277029797, -0.00024332207672757923, -0.00036650100465946935, 0.0007899731414187914, 0.00046308166832973287, 0.0007716585344576653, 0.00047278518653268473], [-0.00245784870618029, -0.002337462997144048, 0.0008218802614201282, 0.004520094865573163, -0.0013696984129072927, -0.0012984977605436908, -0.0010115688951180112, 0.0003648730661264131, 0.0025226428716302123, -0.00025200444158616743], [-0.004643504489705098, -0.004818176707020329, 0.004063390672518882, 0.0026985843230251227, -0.0011139756301237448, -0.0027646629471785927, -0.005085558791493776, 0.0036852323838582465, 0.0023480734772349508, 0.0002477113781857888], [-0.006603762518714292, -0.010953380660461984, 0.0073186959007823195, 0.001454770183310665, -0.0007236818461865336, -0.002439984937365929, -0.008030352298230887, 0.005180776289203147, 0.0053683621219814, 0.0012959380666272263], [-0.007506929673557058, -0.014772154620941991, 0.007660097547375979, 0.001227873458545826, 0.0007168370762052666, -0.002859093748498254, -0.006976293067282299, 0.008907279536902426, 0.009491012588504988, 0.0012016839308307417], [-0.015241874792924865, -0.01888408597247376, 0.01789681325969981, 0.0020325061301744588, -0.010046859783258583, 0.0020382217929660316, -0.01130358305851337, 0.009554153620569522, 0.010615308158883214, 0.0033659207414385647], [-0.013463278665798563, -0.018526121923313096, 0.0171301817650693, 0.009781126790328273, -0.019933409040480965, 0.0038042703882341803, -0.007653804274257407, 0.010920529218892867, 0.01177554768328977, 0.0022048135141329813], [-0.007631493036752251, -0.012210740573589715, 0.017866779694331654, 0.013195086245824302, -0.013003439261887018, -0.0019003628151061866, -0.01784493467783175, 0.010225629435903744, 0.008895947503332433, 0.005288854535484909], [0.0004408384230851145, -0.0022857740113977603, 0.02421177621716249, 0.0021594753928473706, -0.0076183022771980505, -0.010738570568116666, -0.02137366146150956, 0.0043464943043872864, 0.004501093639631684, -0.00032013742394133046], [0.0065963320102210826, 0.0049894895054655615, 0.022510577905841985, -0.002220982889563852, -0.009248131394717795, -0.016027932925889093, -0.017398280935805633, 0.001608199731924199, 0.0031641339516330176, 0.005771762017124385], [-0.003995429755482936, 0.00347688231146344, 0.016594140706249958, -0.003967399749208711, -0.010143225468693609, -0.0050639697398052195, -0.008942370536987144, -0.0010599920944923008, -0.0015775272039429324, 0.012008943384834539], [0.005929901438523415, 0.0014385339688871904, 0.011755610739093625, 0.0016194095112857486, -0.015735617396988963, -0.0011675917653262726, -0.01248956394292655, -0.005087379266889587, -0.008014042161361831, 0.02151275674693494], [-0.00033141330705993593, -0.001055028009064737, 0.022749054774500347, -0.0007385299080329292, -0.010299300111909087, 0.006328015141266803, -0.013013193758634975, -0.0006519718665980968, -0.019483437392558103, 0.019742567707238937], [-0.0026762775204397784, 0.007731926725209236, 0.009370501482503435, 0.002486519621916492, -0.011192218376460821, 0.0004928142244127838, -0.004962079855033876, 0.0021902790749266173, -0.025139724486265246, 0.01542555508594475], [-0.0007528838260639364, 0.0050938063464943326, 0.003002328177371017, 0.010465495119833731, -0.01450689206276073, 0.0006732904891549142, 0.0024748643865831, 0.0029247201725793783, -0.019783597673026163, 0.012224479582885047], [0.0016498878803711124, 0.011113911060311631, -0.007237447287566584, 0.007286813684976239, -0.016558840056310947, -0.012568341206715924, 0.007763800311687784, 0.006364046392983893, -0.018053497464015255, 0.011439576923004317], [-0.004593435782741134, 0.008606938213756217, -0.01126861965293139, 0.004927595800220279, -0.014881322781107173, -0.016666871542430562, 0.016644074181794855, 0.01119368687648044, -0.008317487642979236, 0.006303392520313457], [-0.010080029796100395, 0.003043551534093542, -0.01759640333410397, -0.002210041356104931, -0.018155338914102263, 0.0004623820621815203, 0.01843145766071461, 0.01475128059679934, -0.005554936710098994, 0.0028659677322637727], [-0.018513626712306677, -0.0021174360845674905, -0.019037781552784083, 0.0013803833733306956, -0.008407516609380997, 0.011772349324424324, 0.014191301192815873, 0.01009963339133271, -0.008722527424958037, 0.00390489547933671], [-0.019418190143253, -0.007672945844751904, -0.01563138681928673, -0.001295740174601067, -0.003920463411350955, 0.02320329644248184, 0.00936187261329648, 0.008802191398583558, -0.006050923383483265, 0.0015005344513155966], [-0.010369274475546694, -0.010846743735769384, -0.008989598534212034, 0.002578995408798809, -0.004060318321176185, 0.014643472048965017, 0.0032031846163385314, 0.0051810890667906215, -0.0015148989001167396, 0.0029722094004126396], [-0.0029449434569931987, -0.004164374334470122, -0.001440680042361934, 0.002603623617235788, -0.00180954220694498, 0.004263058811146574, 0.0015446212748669822, 0.0026822687635420527, 0.00047422944520061986, 0.0017222859625322191], [0.00014593080441830414, 0.000230271174654509, 0.0010099027024450375, 0.0009022232995834378, -0.0011538603305501363, 0.0017630399713038669, -0.00019673615168180894, 0.0009888793575091154, 0.0010910380844938107, 0.000991606487399214], [0.0007680213003218031, 0.00013146077597003247, 0.000609113986539598, 0.0003801130305968545, -6.0871781037753434e-05, 9.187860972068408e-06, 0.0006362571309516424, 0.001047558464612306, 0.0006920866397872646, 0.0007328933223699242], [0.001121458117262301, 0.0010867983075761188, 0.0005388990895159051, 0.00012322910347652488, 0.00028157844190304844, 0.000771402372665706, 0.0009515534520385919, 0.0007346014318149781, 7.417958237695607e-06, 0.001015594615791891], [3.53860795550705e-05, 0.0004519338785188702, 0.0011992049091328724, 0.0006936224567634303, 0.0008449974187298622, 0.0008471614866633779, 0.0007702980854329647, 0.0006238603607853874, 0.0004819254798427086, 0.000852146150035685], [0.0008072906240783054, 0.0003440646623751844, 0.00023705252693915422, 0.000631023543652413, 0.0008396159448619348, 0.0008493159555411571, 0.0004235642681892018, -1.7564141204958035e-05, 0.0002471887198147938, 0.001289526832695251], [-7.02003658338027e-05, 0.00026280738802445517, -1.816165677133745e-05, 0.003221529499625691, -0.00030180167240604136, -0.0010213001282097399, -4.0933781694030735e-05, -3.3755919163150016e-05, 0.00022423832917020593, -0.00012456985892663516], [-0.0003526702946447529, -0.000549796354410291, -0.00236324286357139, 0.008569246748578748, -3.664289595343488e-05, -0.004512409197795641, -0.0008550989303069299, 6.746034284249564e-05, 0.0020034320769811887, -0.0008551556484876523], [-0.0036149644558366206, -0.002145540089275798, -0.0012784005902609532, 0.015970246297901926, 0.00028670548678675126, -0.008853774942137299, -0.00394991595846594, 0.004068654771888221, 0.003080254079674322, -0.0031098016444438817], [-0.0029286120937219435, -0.007882899035882318, -0.0008224643836226214, 0.017505599960682083, 0.006800712242785952, -0.012047556241185618, -0.009029013011715529, 0.004884545980657999, -0.00014244537151059206, -0.0037955901472694104], [-0.005891865255228363, -0.01183867309849967, 0.005203155600506842, 0.014984820940984465, 0.01136981953349164, -0.007698211192975803, -0.00905251808386101, 0.004000775441573661, -0.0018125743261939832, -0.0014913482877880239], [-0.011099292349808589, -0.011053586500021254, 0.007104130943667721, 0.012431932325848266, 0.004298749405271605, -0.0031262136649317747, -0.0007998671080060546, 0.007737406774861123, -0.006064082313991316, 0.00215547589537536], [-0.013640619728183149, -0.011435496192358742, 0.012332898924828467, 0.012456176011665014, 0.006813207018418109, 0.0002168859831914041, -0.004481192594689787, 0.004169320259534033, -0.009898298037446775, 0.006342879422176228], [-0.01118006985208276, -0.014391747556057826, 0.013427717482889793, 0.02299258341939225, -0.004381304027311609, 0.005000033460729642, 0.0012085902063967975, 0.004133649571946667, -0.018709563967927924, 0.012877444036124598], [-0.007064041861255825, -0.011410009724615615, 0.017240281486454297, 0.02071126857172821, -0.017751433091817093, 0.0011071851483802385, -0.01645693892825564, -0.0003866280916423182, -0.01339122658365015, 0.021260330408062567], [-0.0036986493646344243, -0.008119415128181508, 0.012758797310295139, 0.015921936691121543, -0.02280142371380353, -0.01358793437016595, -0.00788207574965643, 0.0013008917258735704, -0.0025935326992083444, 0.015183587704427414], [0.008281638184987719, -0.0007584895099768589, 0.013351631968204688, 0.014004903600647675, -0.015408692831316946, -0.01851632198016844, -0.01596431481104953, -0.0008197365253866784, 0.00290705050684312, 0.005923697316420076], [0.003526873384335021, 0.001993926263137673, 0.011298834011899364, 0.004323269387543855, -0.0027361763546880514, -0.015596503823107236, -0.009199841095020313, 0.006156977027574548, 0.01772315074159881, -0.01616201098613204], [0.006048233231146639, 0.005503920810552314, 0.01044262795343532, -5.0548280983488766e-05, 0.004345102132638523, -0.01583891348442241, -0.012233050004530647, 0.012515817375469317, 0.017144101610798015, -0.028145629858123893], [0.00484092665343532, 0.0005140937242231713, 0.00433625323331052, -0.0035927412988550015, 0.008129558503476214, -0.014155786667588143, -0.0076435385730349945, 0.012721629012139923, 0.02171800970065857, -0.03778601340574422], [0.002427293747941476, 5.274217094578877e-05, 0.011020648738679575, -0.022575269318892064, 0.004712431426056679, 0.00038634977506122123, -0.012970068167798393, 0.013000862026960191, 0.027386085306418676, -0.029841114350496765], [-0.001460603663142398, 0.003669727903558306, 0.002404293406838072, -0.01579880893307511, 0.004230909525951309, -0.0008294102590113893, -0.007696319619086686, 0.01699809012532087, 0.01863260106789631, -0.019610118371443542], [0.004138450199589938, 0.007938964804677753, -0.001444484501727335, -0.01096605949685121, 3.0341849248248425e-05, 0.002632135931011142, -0.013657371639330283, 0.011913760675880406, 0.007493350806443143, -0.010431016920368491], [-0.004580703200571061, 0.01418414185113495, -0.00038059387091825736, -0.018758905141313002, -0.002175283574195545, 0.021123145852167426, -0.01837463580922399, 0.010260501447555925, -0.004367929360348638, -0.006278821588360212], [-0.007538872046094821, 0.013570434507466202, 0.0020158749871031253, -0.019839475930318717, -0.001383636290266844, 0.026825600158101336, -0.02033475586740082, 0.015424460152263285, -0.010458340394779152, -0.00622940542369667], [-0.01924882358329092, 0.0029894388367244363, -0.0006219934721379709, -0.011082820915007967, 0.004289173406991802, 0.041035011185150606, -0.015852594854681563, 0.016075977864202704, -0.019116240035501244, -0.0048891260115950285], [-0.028168516124995192, -0.005672780836085193, -0.008544575952639957, -0.003551823554722772, 0.014244767821570919, 0.047162482920506656, -0.011448349396672065, 0.015578827317708223, -0.022826968285644535, -0.00892062692000621], [-0.024248388237797704, -0.015422001773398773, -0.005769883052895843, 0.0006720906743526902, -0.00638693139346701, 0.039849326243299364, -0.006474418490274737, 0.015376620674116437, -0.013360475527674505, -0.0020250129829971573], [-0.00964530998548777, -0.011817588329090951, -0.0017136735058140237, 0.0030464077904878793, -0.009307663291422831, 0.016610394542557867, -0.004463208162324875, 0.0054296709661637525, 0.0005840767860079211, 0.00013475681734215783], [-0.0023254734519534337, -0.0018742484664356364, 0.0005324379614215837, 0.0009601638278494871, -0.00338750458187079, 0.006013768227200042, -0.000586733102927035, 0.000878510291317897, 0.0017744458871651733, 0.00023635779770074376], [0.0010522549267406578, -4.820237589202873e-06, 0.0003012955751140882, 0.0009395978194958412, 0.0006122539115733722, 0.000252809461424556, 0.0012716790881292985, 0.0005196180538470505, 0.0011491434450682447, 0.0002040033511878552], [0.001181874593203492, 0.00020644204690231633, 0.0003352610161911665, 0.00020299211512442392, 0.0008422777469356484, 0.00039961578572034477, 0.0009426118048361233, 0.00039248037846380284, 0.0008595623532503873, 0.00041149722537912436], [0.0001894844612462881, 0.0011734998779141322, 0.0010165572092884748, 0.0005230306825481361, 0.000378479397516791, 0.0008758416945560993, 0.00018543681248783448, 0.00033439150454221076, 0.0008721214446282097, 0.0009262576932164363], [-0.0002861844720749687, -8.563941361429442e-05, 0.0012025662756980238, 0.001266925341166857, 0.00036045443010335475, 0.0006010002615274117, 1.6946346027710903e-05, 0.001947249110988685, 0.0006969944135778275, -0.00027824769088327704], [-0.00021221158644068393, -0.001312009122671788, -0.0009479650828929052, 0.009277305800661365, -0.0018807258244366147, -0.0037260370606294977, -0.0012683761911080527, 0.0020499037172278132, 0.00042222479313285216, -0.0016201977225813711], [-0.001069943942836785, -0.002267890252070943, -0.004903825779497744, 0.020161534103786995, -0.00016468592118183204, -0.009973716958932096, -0.0009643256028529718, 0.0014590420549029889, 0.001134000455242955, -0.003301127045103231], [-0.0012108920886915006, -0.006017534020857883, -0.003472003080998823, 0.019316640705331845, 0.000327771211139243, -0.008889836647026673, -0.005593870553953444, 0.0042587156303368475, 0.0033575572357461684, -0.0015209454586765845], [0.00067781718046337, -0.012085211813819795, 0.0011873251297674916, 0.0195964620143225, 0.0008519609901940517, -0.008157595614987623, -0.00848157206294143, 0.008543012698332823, -0.0019203577798097224, -0.004423110033574135], [-0.0024296951568378335, -0.01043729881022973, 0.005999535856603318, 0.011006016147188238, 0.004157774722607625, -0.009806279068299891, -0.004032453929543722, 0.009482915062399051, -0.008788972579383544, -0.005826839977706719], [-0.0031246522025157944, -0.01564829727004703, 0.006271273953635164, 0.022108687390575064, 0.0013735994864829762, -0.010172748348587498, -0.0020994531120758077, 0.008427723605916947, -0.006115600469666599, -0.0025720109165078492], [-0.007743427402520609, -0.018955499353851813, 0.008076916422008407, 0.024370610972039183, 0.002111245963165093, -0.008560547339611488, -0.0038962358506898645, 0.0016989477337650957, -0.009021974332394826, 0.001092413028390922], [-0.0075127869672483765, -0.01866228664485743, 0.010526301965599734, 0.023790220244311138, -0.00040883320442764966, -0.00030248568426038643, -0.0056378461158842355, 0.001426275972879139, -0.01027413999616218, 0.002476460395270638], [-0.00428209720443255, -0.009068431838314633, 0.005868601052355969, 0.019921243802681416, -0.010156329085019917, 0.0037584955670845106, -0.006973618864035785, -0.0037074236975000335, -0.003545439861683168, 0.013052829905925217], [0.003065015124233437, -0.008243202036581942, 0.009141352064364528, 0.012262518178575207, -0.015125591347494954, -0.0038919077634604134, -0.0048525785820912395, -0.004506160413835453, 0.003232435690937141, 0.005999055046342831], [0.008998023882942985, -0.0029077298855542722, 0.005044980157744135, 0.011166267941824091, -0.024736662300081834, -0.007966671319161964, -0.013841259868933977, -0.0029290552360360968, 0.003604195569604216, 0.01383015887642097], [0.004329248352504756, -0.0006032150175750844, 0.005097143361202116, 0.006634330553978968, -0.027475474365981672, 0.004573421704796579, -0.010638594500612714, 0.0011902996347214478, -0.00018657400283356444, 0.011641393056070374], [0.0007948570903186286, -0.008211844814954346, 0.008715184047465902, 0.006967256426202584, -0.02101828640973348, -0.006941249373400966, -0.011666636960524267, -0.002771042803167605, 0.013607267802038255, 0.0107908673428062], [0.003124945048339773, -0.009676285261218468, 0.0066602099959795, 0.010660611208773202, -0.021816416454863048, -0.0063251849633466604, -0.009139628596939623, 0.0014673980466081565, 0.0016625673622400383, 0.02154310271425904], [0.004587362976900241, -0.00702501762454978, 0.006063551089113204, -0.003939327546371894, -0.019049884874403095, -0.0014614996951193334, -0.009015861374875247, -0.002650129521673893, 0.007210847830034074, 0.024141722166824586], [0.005921180045250976, 0.002070904252188311, 0.003928220683665211, -0.0024284679072173686, -0.018380197117291497, 0.004378337797603926, -0.01568923091863794, -0.008564023380765704, -0.005880659352925833, 0.025122815720486243], [-0.0007428134383617911, 0.004565937478305083, 0.0024144242459191822, -0.009854847721863154, 0.0033086024421866717, 0.00981237317291099, -0.019110950988899526, -0.0027693828027305165, 0.004934624959637408, 0.0060061530267042735], [-0.00028844220529851124, 0.004662907704199005, -0.0014015517406603662, -0.0029724463673143895, 0.007217324741571384, 0.015500252904440293, -0.02493995534005219, -0.0027980903318287923, -0.0011001862449933127, -0.0012692382839336667], [0.007284555929183068, -0.0026478938043477266, 0.0004490039473190466, -0.004882347046375023, 0.008708971168026979, 0.013954000749867341, -0.019118478072700815, 0.006954616432635828, 0.0037721618594301317, -0.012112207614676535], [0.0007093395659324022, -0.005272860420124005, 0.0015032290176356091, -0.007172630681541612, 0.02018548758646308, 0.024074393810279853, -0.01776039381430843, 0.007270666342250094, -0.002238761356602055, -0.0183424528317717], [-0.025045152167177075, -0.008984807807888009, -0.009233930562329273, -0.004160324830985795, 0.022462827359947347, 0.05285004981535837, -0.0156615079719676, 0.006692971525641725, -0.007847748114903925, -0.01880177868524908], [-0.03801520847226714, -0.01722611404802186, -0.0019679521742932984, 0.00020751838222069432, -0.006106160909718188, 0.07748931680981216, -0.014790720437889586, 0.008368898782050148, -0.014529230043267043, -0.015203147034953344], [-0.020843550247623674, -0.01438855531274177, -0.0005326869215424435, 0.0048471844838469304, -0.016046774611595805, 0.044901636059481234, -0.00794472851745357, 0.001600576068493301, -0.0027883218016808544, -0.0031424457711791195], [-0.005672399805516624, -0.004298537242619087, 0.001190830861565072, 0.004509652302876743, -0.005454412478439845, 0.013072805292353698, -0.003137191819567182, -0.0013914005435896057, -6.367177338701625e-05, -0.0015384463700373668], [-0.0005049296633884709, -0.0007973882514960708, 0.0002258245884801699, 0.0014446611671823676, 0.00027039004528157435, 0.0017097571787204238, -6.55120138481939e-05, 0.0003556352683035332, 0.0003949663415725858, 0.0004806167609482335], [0.0008471850143150121, 0.0009505050130359812, 0.00017246763307458455, 0.0002443637729192313, 0.0009015649078509144, 0.0007234402301110727, 0.0010304024631906448, 0.0008418448836722276, 0.0002548457401572299, 0.0011255360696106704], [0.0009097695737209865, 0.0005807155002278966, -0.00021311434833548137, 0.0014582018095822566, -2.5167021923430554e-05, 0.0005701936500650452, 0.0012948041196847583, 0.0004558414380989892, 0.0005718834351757, 0.0004324521313323895], [-0.0008623238146236222, -0.0008329958490496772, 0.0006198808369558089, -0.0016024748575962254, -0.00031695483503422996, -0.00023024964420878126, -3.619321621405227e-05, 0.004960392678370748, 0.0004496422477630571, -0.0001537974855730313], [-0.0016802745953776639, -0.0037050823286892266, -0.0014778992835217215, 0.008297848210844805, -0.0017196007457908513, -0.004803323464546441, -0.001073391551325738, 0.007085392951381999, -0.0006791324886030659, -0.003391748048433024], [-0.0010289140479775036, 0.0005889854896802367, -0.0059557822578772115, 0.021746980613660375, -0.0007363660276227354, -0.012988518827213654, -0.002624878578480243, 0.002914067650476493, 0.0019471684136792005, -0.00611777755524978], [0.0007534887975610893, -0.004173869947952039, -0.0030404987217301205, 0.015747967892161454, 0.0003145765267342032, -0.007560319921499723, -0.007801646356732931, 0.006340229154159345, 0.005041528334519422, -0.010328954444806363], [0.003387652367615367, -0.007263183771392473, 0.00528227363303031, 0.009051843959435495, -0.0028011180973467596, -0.0016815834340092551, -0.005384994226234482, 0.012893988889621946, -0.002185219998828446, -0.009991534492653541], [0.00017258749932556804, -0.003219135600864592, -0.0008439341148707314, -0.0012967496285649532, -0.00022331074265385885, 0.0018377799596048464, -0.0017265085790170603, 0.011597654531462259, 0.003685948166741359, -0.010926722855933392], [-0.0020921045078626382, -0.009276161399391154, -0.00039972363207785517, 0.0018328339081494234, -0.0015479447710752645, 0.0018630977558174878, -0.004305763185769184, 0.009978009988505487, 0.011447771527394585, -0.0071486915310160805], [0.006377163239551972, -0.00763038230081732, -0.006951725236688224, -0.002125666815559941, 0.0015877740018006492, 0.00020658862601053373, -0.000903614884718728, 0.015666117253801574, 0.007199706637019269, -0.014327039132241278], [-0.002897503632634028, -0.011728011407034134, -0.002793282226690676, -0.00672443027623891, 0.00202071906701046, 0.012258013124391162, -0.006945563821942738, 0.015545449415812478, 0.008426443558412508, -0.013434710873759484], [0.004113814397601284, -0.01093773041424679, 0.0032110107145431714, -0.00580812296822956, -0.004374023326851768, 0.012566225570926931, -0.004884879243995133, 0.010879018645897168, 0.0021218085196988384, -0.004092347265183536], [0.008010993594442163, -0.0020093822293595497, 0.0016413639406509795, 0.0005749989279581058, -0.016891678689384942, 0.0019391729841554586, -0.0064638262922172025, 0.01244583134651259, -0.005793680612567543, 0.008996729470862492], [0.009536618334836827, 0.008025397322933678, 0.0033132061840996725, -0.0019758131948958415, -0.020253720220570193, -0.005117322727951762, -0.013860132201488308, -0.0004376578292065675, -0.005471621587880762, 0.024983771258663325], [0.014749048279133824, 0.002259898684108412, 0.0033100171866911675, 0.0006706348856735695, -0.029227576733062095, -0.0006902983594211773, -0.012179341420616899, -0.015055803668990666, -0.011696855908800492, 0.04878245616889837], [0.011799937935526127, -0.0031156902755219793, -0.003279728297637741, 0.0035817801717399366, -0.02691833054179833, -0.014327121556807277, -0.005624468088058224, -0.021378516696507976, 0.0034241217320475858, 0.05658172546753166], [0.0060084203513123165, -0.002458812125433995, 0.0007850344005586047, 0.00028026054409493887, -0.015764173398835395, -0.0009458217759646451, -0.013322711554544828, -0.013664865119203192, -0.00854768061758379, 0.0453853422207935], [0.013745659953767695, 0.007431846109070633, -0.006301607276010454, 0.0011403755499256895, -0.009540135127934793, -0.0018026449453401867, -0.013474763156003638, -0.0041298718318094375, -0.01224000249277813, 0.019138871465574556], [0.015119398249241888, 0.005330255191734696, -0.0014144271956275326, -0.008968315857081528, -0.0023105815853044507, 0.0012505800173959688, -0.018565129476141067, 0.003124146861174143, 0.0037144378078060626, 0.0029457641302371136], [0.005334289296060222, 0.007706381353760388, -0.0025908351590854793, 0.0005197776725152977, 0.00418995638611399, -0.00023364733226781276, -0.014274776749239914, 0.013593627051433747, -0.012176321879400672, -0.007125628026662187], [-0.0053790835122717335, 0.004038025781697207, -0.0035896745848606484, 0.007729266071294582, 0.0014404711878703948, 0.00031952093827079223, -0.007331935913244133, 0.013691921669437718, 0.000869147191585072, -0.003570267976820907], [-0.0022888628162338986, -0.002576827482852929, 0.004970324428173685, -0.0013523084489027448, 0.0038605441355013875, -2.6464842092036777e-05, -0.00809822577203253, 0.006702573361895268, 0.0062070858060139684, -0.009175700350249567], [0.0070960419471881595, 0.003121179289714139, 0.01000496695420911, -0.004800264797249386, 0.010497325395098848, -0.009516895772706447, -0.01092408338569633, 0.008309581283341767, 0.004823875230096907, -0.013622146860693643], [-0.014261963547094426, -0.007298597288871228, -0.008552766877593734, -0.0025225951124505067, 0.007660410547012479, 0.040126116333201, -0.010059597548988563, 0.00019955587378539638, 0.01269011946095662, -0.01684708790488406], [-0.04874521324236676, -0.01908241883021384, -0.0057775619080645425, -0.004028514274588668, -0.022457401079182124, 0.10436432540357538, -0.014223077055797222, -0.0024363584537442523, -0.0007124718521872751, -0.014670235286743783], [-0.03275473213153788, -0.017211495567766757, 0.0007614022136811766, 0.005523256540484674, -0.02773698857508816, 0.07817714683308664, -0.011453021817342568, -0.0051320566780848976, -0.010740309774110668, -0.004719344856057857], [-0.008518255796218168, -0.004643542815517702, 0.0015165780831934688, 0.0058379576804731634, -0.008032854168814989, 0.018400983785660328, -0.003084623999337885, 0.00019105425567821682, -0.0015323800592666704, -0.0009955898204046932], [0.0004436166311180753, 0.00041006211904725127, 0.0003870677599785316, 0.0008403167454459914, 0.0005746106255738977, 0.001525281669575523, 0.0008104130007147754, 0.000744277058118236, 0.0008593322934354492, 0.0004552033213897873], [0.0014591815644867075, 0.0012742390955775478, 0.0007243483744385917, 0.00043965826725009147, 0.0002374985408589286, 0.000550153882696834, 0.0004526525478144719, 0.0012259977123145437, 0.0009006491451511902, 0.0007937230333013278], [9.832290426082904e-05, 0.0005272307937553608, -0.00015102259450541745, -0.00029010339480207384, -0.00016994116599906427, 0.00018287420636500703, 0.001548242055596512, 0.0035090087103029372, 0.0009785522942486542, -0.0011759580251216074], [-0.0028562057759918625, -0.0013705173661049974, 0.0005962411226954564, -0.007452073885234772, -0.0014792597163159516, 0.00029136826006427715, 6.584522829581397e-06, 0.013504367090496934, -0.00025857617475990197, -0.005366469427088636], [-0.0044357069854647, -0.0028362916108814447, -0.003808860351868568, 0.0015710757492879612, -0.0006533396039160305, -0.003637208475560328, 0.0005796042396143205, 0.016724927938486508, -0.0012261181438169972, -0.009443030328913013], [-0.006521174869036626, -0.0005315342797318298, -0.005970179016550969, 0.015895882863048695, 0.0027244222917871164, -0.01324383643787529, -0.0062351528324598, 0.008964495872621953, 0.005653727064570377, -0.010797862841504116], [-0.0027458719619004885, -0.004234909908057111, -0.0028789775687465577, 0.011202120693395991, 0.00944074686015605, 0.0013425731335029551, -0.0055687998523634595, 0.00684640238129402, 0.004559781124723478, -0.016983524044028267], [0.006215335099838955, -0.0034572217630917295, 0.0021740935580000344, -0.00016200558713107304, 0.002830787176189307, 0.0009712760197893777, -0.003514681698255272, 0.006155258961373733, 0.007877112381884129, -0.008348475613475553], [-0.00020827834186405006, -0.005818459961457532, -0.0050740405044246316, -0.011218762534094257, 0.004739761587581247, 0.0029416389667375957, -0.0029724338802148355, 0.01970026111277129, 0.013266918164627316, -0.01620980431732738], [0.0011175339932162484, -0.007906392222067701, -0.002742431718413835, -0.019340614358358803, 0.0005251771508237306, 0.008530073988355522, -0.0014942069058424088, 0.018991133550413358, 0.0055383598775146, -0.007632461776384789], [0.0027442341488176933, -0.007574435097557126, -0.004156913696861455, -0.01106788428124392, 0.01425277863706872, 0.0013952043080857615, -0.0007567822503490963, 0.01730851291673305, 0.012676301385608567, -0.018307975371061658], [-0.0005455520920789397, -0.008941886334432797, 6.384252204478678e-05, -0.01104137960075748, 0.004967321729686406, 0.000651615951289829, -0.006478527855834681, 0.020326889256605155, 0.010499451239922084, -0.015044081361535257], [-0.0041098633227152565, -0.01458045268013879, -0.0028664613957863636, -0.0032376516013288667, 0.0012109340409301981, 0.012224105415546542, 0.0021675699088778634, 0.020079243358122573, 0.000793703160091314, -0.013384338725465685], [0.001650055004016564, -0.009962908974718807, -0.0016934074789056283, 0.005971391125528186, -0.01272819451606042, 0.001610077970536911, -0.0074440856884057886, 0.0173880455558269, 0.00778101439532764, -1.1651395096583543e-05], [0.004144391716075682, 0.010433519099640532, -0.0005104333145433903, 0.001059261073768536, -0.02109874540788119, -0.007668136172950162, -0.009568112159316263, 0.0067876564557598175, 0.0032482278741092583, 0.015439494141918149], [0.008686790772148623, 0.004819563540733623, 0.011274676595887769, -0.002277819497856673, -0.02909773983971117, -0.0034718411450578254, -0.0106624779333685, 0.006200582579849427, -0.006844485807359384, 0.01590833262772899], [0.01180454289784147, 0.0036867848232965475, 0.0023011157840220763, -0.005081859008165995, -0.019060798500898278, 0.0021749114469133608, -0.01204216247345635, 0.003993968879801028, -0.001113224837960088, 0.013170720591420236], [0.017896124456448288, 0.005701140093897931, -0.005919308417748507, -0.003598188419422271, -0.014906345106312951, 0.0016826688206248825, -0.015312260890056053, 0.00016781943208428788, 0.0011790521073277375, 0.015843891082374943], [0.009655203165020285, 0.01739769796704338, 0.00044179920083567555, -0.00047512335138526093, -0.004963037848506949, 0.00216861252764568, -0.01704711747630604, 0.0037252273504714255, -0.014693617652110988, 0.003419881583868346], [0.006242470361142592, 0.0051779527296675594, -0.0026214885982968157, 0.009611472732699095, 0.003683051280048073, -0.004608350417589034, -0.021471379525107085, -0.00039173747536723664, -0.004555187602011244, 0.002156719251155694], [0.0077341426327668, -0.0014359688846678337, -0.0007959954353559522, 0.009898987499800954, 0.006079066153502795, -0.0030772616606271, -0.013157417150884115, 0.00326419505378536, 0.004696086576377038, -0.00725320807577115], [0.006005956730969638, -0.005796136353039487, 0.0017029061531349937, 0.007369205366090038, 0.0075054787740918855, 0.006340692901559754, -0.015043825787801158, -0.00030877951687882535, -0.006069934833099175, 0.0007884380549912621], [-0.007402773433298949, -0.0036673010295090063, 0.0024500195724023086, 0.005018347209428157, 0.004128188543454176, 0.00470233525801185, -0.009885980993492771, -0.0020955085976043274, -6.799715046194724e-05, 0.0015163445409587266], [0.00326326386011539, -0.0016460734315505183, 0.005268476368265145, 0.00621451568940413, 0.005452292309482917, -0.017264309186737645, -0.007350034694859533, 0.008810697108839053, 0.009614352745974058, -0.0015045361330587549], [-0.0063449008238398805, -0.0108522942657729, -0.010231864290329056, -0.007789797075899129, -0.009196068407886856, 0.03298634298273224, -0.007029490254893885, 0.002462704760229525, 0.01797299237581257, -0.00610085872422599], [-0.05220754688420798, -0.023202151282772674, -0.015785885545556787, -0.0034652325959452722, -0.030524177127440478, 0.12128982500846522, -0.017836548143510114, -0.01167592916797271, 0.005231256337826658, -0.010127531862980805], [-0.0437168988516767, -0.02304067975778379, -0.0028679513210772473, 0.0026897892712391476, -0.03316174128411454, 0.10472935504419695, -0.011278785662534208, -0.009798584026815887, -0.010504884635288043, -0.004136429589919251], [-0.010042548259699757, -0.005248025685013681, 0.0023751598692648003, 0.004626997082210987, -0.00906825279802134, 0.02224771031204158, -0.003607026578383521, -0.0008398234174534367, -0.00025334709763810004, -0.0015680204239918807], [0.00018746167473810974, -0.0003243868893630677, 0.0008416355177633731, 0.0010580275159625466, 0.0006052688389738363, 0.0010316926327284392, 0.0002659340737996937, -0.0003836570545148091, 0.0021678031585676814, 0.00043576923955665145], [0.0004617503277373542, 0.0003294503788084335, 0.0008811784404261501, 0.0004367981769958378, 0.0009261657418098505, 0.0001340320088213512, 0.0004279127255515557, 0.0010669116776006874, 0.0010776620572961891, 0.0009567681345263735], [-0.00010962937760912531, 0.0005262662905770327, -0.0002859155592843626, -0.0013192312694202798, 7.022901879872471e-05, -0.00025056834479189556, 0.0013346305008947062, 0.004834804643660511, 0.0004155408886313199, -0.0028496004963083897], [-0.0030883162440885365, -0.0013879185743025783, -0.0009583516797308987, -0.0074508944079863275, -0.0003509721560985474, 0.001400901419519148, 0.0009069708643864563, 0.01634815192730716, -0.0018886489899574094, -0.006492934187011906], [-0.007346308572761749, -0.0035520479905965874, -0.002347587701564781, -0.0037781556798632083, -0.0014548212533401067, -0.00095844451928448, -0.001087149555385009, 0.02484557920760811, -0.0036253418800180712, -0.011391613838738242], [-0.00875702290339322, -0.0012461348416991146, 0.0007626845954570207, 0.005304364758066967, 0.001858298604832758, -0.006363425973387276, -0.003394966277461305, 0.02374642065336862, 0.000914866511897939, -0.02221510331660789], [-0.003217361409201774, -0.0055265229827593555, 0.005416158099543156, 0.0028081257613411428, 0.006917755434664414, 0.004256712889024027, -0.0043243026819979645, 0.01835529220782461, 0.004777003746116069, -0.0196076087251968], [0.002813351468118976, -0.0024485248806063657, -0.0026279150721922073, 0.0024576241207776425, 0.0035562715861214888, 0.002892886136473542, 0.0020502657313834624, 0.003634164134847082, 0.008852250197802242, -0.007106460487892327], [0.0016820765720977039, 0.0011019392592140327, -0.011636646387792361, -0.0062058225082934505, 0.004967159053509736, 0.002410878652946589, 0.005257496152231204, 0.012025852499127833, 0.007945361343711991, -0.01870617385566032], [0.0011738887222905064, -0.005738438733487967, -0.012417545375344298, -0.01743982042219269, 5.554240118244523e-06, 0.013253347533369441, 0.0028007823973843745, 0.01898967739104442, 0.012626603561210405, -0.01603576498443825], [0.0016721643901875616, -0.003353507854038635, -0.009214495205608214, -0.017984302556448714, 0.001716730559785106, 0.005372400712523639, -0.004043768691692329, 0.016925603241434335, 0.01578481274096194, -0.008383827031070988], [0.0007590903131237355, -0.006846182046346045, -0.004009981939815869, -0.015226653165950236, -0.00146540331316894, 0.0012070925169793227, -0.0004801774762181469, 0.0107635266174549, 0.012150683129914314, 0.0012810083367347648], [-0.009636287193459077, -0.015739891030655248, -0.00366464324278007, -0.013089127423464676, -0.012990935109884642, 0.019874276523206898, -0.0023933260052280297, 0.019432018057730094, 0.008991996099293647, 0.003350525726674283], [-0.0024868918607644265, -0.015504957824432336, -0.006370402600890607, -0.0032481387052022133, -0.007596482559842268, 0.002118950201125518, 0.0028123084532192468, 0.028236453123003963, 0.0027961492845314175, 0.0002767601757953436], [0.009703514182737655, 0.007374264430985145, -0.001914878102881595, -0.006497491771443242, -0.014087092577571337, -0.0018385072032201842, 0.0003796735237885914, 0.028005991661750794, -0.010167021119092325, -0.009861773779934448], [0.01043312791333815, 0.016467493210923105, 0.006844844891474581, -0.004080611434615318, -0.030343190370815124, -0.008914724502561217, -0.005522271011610894, 0.02963888600239865, -0.013002921025450876, -0.006469066125187373], [0.014444496861435821, 0.008571180267989812, 0.007504265273764105, -0.00030625232050410386, -0.014031923439188047, -0.008341594225441796, -0.017597904067510106, 0.027464209000236574, -0.010434476747529408, -0.005893339845937224], [0.00667671473046757, 0.0007454436041686675, 0.0026575436194696644, 0.001660349641095172, -0.007586853525465157, -0.008281822759042384, -0.019787974357197768, 0.028524724264364393, -0.002944932750775794, -0.011753916092704833], [0.005924043583516572, 0.002866602094006849, 0.002778512340136723, 0.003952899728371467, 0.004874729804285349, -0.002558027878831508, -0.02240446076225843, 0.014362639111292244, -0.0037351491770983114, -0.005771676903574905], [0.006588336266997576, -0.0008972846586124601, 0.0022719182270971076, 0.009794762432446345, 0.007610190613854807, -0.00020194289365481913, -0.02077698357776247, 0.006182809866889882, -0.010089280341640697, 0.0026930232034168815], [0.013934313955418486, -0.005920560532306102, -0.001430634500495185, 0.0059604743596575116, 0.0029394047505280456, -0.001684324546712481, -0.01736205062520353, 0.006154713898123236, 0.0013719495266315226, -0.0037451545560026386], [0.011755231127362969, -0.00739043472375448, -0.010044672168417397, 0.011391279658649191, 0.007500636654539096, -0.007885152962344386, -0.016118970867984615, -0.001451516486110478, 0.00515709868932473, 0.00015555559385920653], [0.0027822925249273464, -0.004222922801872356, -0.006874586769807692, 0.0025890429780043487, 0.008526609487002177, 0.0054295581128585985, -0.010633015351434152, 0.0035121437528421473, 0.009508241149005394, -0.006515335490713561], [0.0008827570887216011, -0.0032957065462638226, 0.004330137982603287, 0.00791644873772031, 0.00665871817679005, -0.006963121325834398, -0.012930790188248317, 0.008132233285605887, 0.012132981761061505, -0.003986536062340724], [0.0045985833073292175, -0.011401274662716045, -0.0049140812689247824, -0.0003318554842451947, -0.013918325956862036, 0.016041030987132145, -0.011560981695250756, 0.0028650894198136594, 0.02681858473696379, -0.004307519815866865], [-0.04138236940682991, -0.022622476600283114, -0.014333610432809644, 0.0037274284622938274, -0.031296723868540065, 0.10956618265061312, -0.017639215657667226, -0.00936703466963412, 0.009330054774854555, -0.012943217563420293], [-0.0451029990206155, -0.02051248947256786, -0.0058555164713534995, 0.0067380015356048, -0.026519401427703076, 0.10702407567583387, -0.008731221686837664, -0.009187346880217075, -0.00833198411337513, -0.01259681528643286], [-0.010401119866300355, -0.005292670885373083, 0.000652489696153881, 0.004379968750322502, -0.007419253507977665, 0.022081766744486097, -0.003980913220438143, -0.0017655954796388508, 0.000951335791799062, -0.003971716909684057], [7.011243437773813e-05, -0.0007527372813759618, -1.8819275497892993e-05, 0.00155679611961595, 2.5513999811780416e-05, 0.00152448085913316, -0.000745790998914212, 0.0010614265099894325, 0.0007501986285451901, 0.0002743222532103132], [0.0006772602368734354, 0.0009258496018526008, 0.000911112815414339, 1.0927747509079856e-05, 0.0007563459592856054, 0.0006261572127128609, 0.0008416003789119514, 0.001357173325694767, 0.0004031153283499207, -5.450855036654387e-05], [-0.0003529793277204284, -0.0009886299566126335, -0.0006401424785184706, -0.000845058313613898, -1.0929587585580211e-05, -0.0015405939440059303, -2.3952305383851633e-05, 0.0068857317166797286, 0.0005825153956647184, -0.0022759648785703745], [-0.003068431308916487, -0.0019804106728880983, -0.0003406502804516116, -0.005848622394115455, 0.00011499674409984426, 0.00025089324470445545, 0.0008989611235100816, 0.018690887444600776, -0.0012578394255127231, -0.008869738547005984], [-0.007646667656129857, -0.004360576498715018, 0.002249863470050786, 0.0004917833061757359, 0.00019399059252548438, -0.002274267032820793, 0.0007929461791990609, 0.029621396632401414, -0.008253995280577723, -0.018007738881845876], [-0.009329472890197919, -0.0038776307979950875, 0.0036267639486337747, -0.0015572127292955563, 0.0014427954913331011, -0.0017740495824118802, 0.0008287824032559428, 0.03361791232620293, 0.0010226996134196041, -0.028993761010046082], [-0.0063855955732286555, -0.005795409740966605, 0.008736433079073899, -0.004796621267009708, -0.0023327781108003474, 0.002946359894225436, -0.005082560904618028, 0.02257223120572966, 0.005936603720170045, -0.017014361638050923], [-0.002904676854314181, -0.006354575051497226, 0.0026714547203199168, -0.006855979927758342, -0.002700837282268038, -0.002164194006867746, 0.00030930219269116263, 0.008928132995325027, 0.01354646903901664, -0.005671443967791827], [-0.001544285417274861, 0.0008028948112769497, -0.00956346913455431, -0.009040522563837814, 0.0046186163784817024, 0.00370100008853141, 0.004416588301814907, 0.010202637481174158, 0.007917529210319421, -0.009230449225992827], [-0.003107538052805581, -0.0019028440553743552, -0.004142435968934154, -0.013045437406796062, -0.0038424633492635395, 0.009992148967618507, 0.001258055364392403, 0.003732658276547765, 0.009885960885106201, 0.00680839698778276], [0.006251452234889676, -0.003313711325875572, -0.003255522907806391, -0.02110658216991952, 0.00039385539472943526, 0.01419559279005107, -0.006577278046312053, 0.0007179066925502946, 0.008824580349529735, 0.005151816346405875], [0.0006876480883210864, -0.005483377619353768, -0.004615178438974833, -0.022948490201422297, -0.0019956554004813627, 0.008960442803923377, -0.0004140898365033811, -0.001535523278110476, 0.018593443767648335, 0.017074261805982836], [0.0029159060313378436, -0.013865565068692569, -0.00406224832608717, -0.028428938544951682, -0.006089009936191189, 0.021597132339767598, -0.007027485249092779, -0.0021909739901070533, 0.017093771289835146, 0.014643060881755132], [0.003181083242012466, -0.01970802712535601, -0.007343596803043964, -0.01748241992789063, 0.008962765490386248, 0.014880538197011512, -4.369507382784532e-05, 0.001999123528156825, 0.014098212612298287, -0.003341645911628038], [0.00677135041393413, -0.0016103811756735362, -0.00816083063223728, -0.0045533708937234955, -0.002039068805726654, 0.008745097518726461, 0.009951331802750575, 0.016631369619255706, -0.009721476222946173, -0.011916934370840754], [0.004326369476131589, 0.0346846264489416, 0.0004105145314316673, 0.009732393239857732, -0.013092930921682983, -0.008029983727275128, -0.008058351903868338, 0.014771103657589438, -0.02681731200357379, -0.013463286618992053], [0.012559811506596448, 0.02487211727456509, 0.0004700773133340457, 0.018468949737444465, -0.0040616811814462575, -0.016863581059499907, -0.016696331727598962, 0.016509313342269856, -0.024342160523169634, -0.004937876579284589], [0.007468232111077583, -0.011436733372298537, 0.006452735482783305, 0.01950982364441365, -0.004098510690920859, -0.018664603865048257, -0.021005325795450246, 0.02879698140391635, -0.012589094656628875, -0.00035355252770400515], [0.013177536994053517, -0.001487203945798332, 0.004750755101410171, 0.004311688686969776, 0.0073771817584174035, -0.02942181851182618, -0.021092968759926774, 0.01852648961834719, -0.003618464999992432, -0.003146143591040375], [0.014924482233599734, -0.0077246381391801585, 0.007570247962028088, 0.005605698170136418, -0.0037950068387242156, -0.01972948977610938, -0.015984840543371768, 0.010043526095256135, 0.007224459436157306, 0.0028350241751422104], [0.013306592304598578, -0.004593392194719562, 0.0006464819505640866, 0.004701216641406426, 0.0024206059922370006, -0.02406329037297885, -0.024208708230224713, 0.013344341569585246, 0.014345398044691522, 0.0034713732480525948], [0.025243042333605588, -0.0031087676449914514, -0.004260223253138911, 0.00447292363135259, 0.0008416658111079873, -0.025895482244728447, -0.019095465722667054, 0.00853824020879944, 0.008609658730080372, -0.004479506743129787], [0.01577068119176903, -0.0027315950538846618, 0.0005825698294663469, 0.004469354806138509, 0.004989526467736965, -0.02237945672059306, -0.022229058792996807, 0.008691162745149021, 0.018974334056147717, -0.00969077263039248], [0.016023508668503356, 7.801090537573968e-05, 0.0016702097912245609, 0.0017548972700637895, 0.006127693971636194, -0.03446423623891778, -0.023901040697047883, 0.014531372403511109, 0.026462331369645126, -0.0009867185132180394], [0.023658730859752623, -0.00504708946703796, 0.0032534517991275836, 0.0012968122748368627, -0.010424254890323705, -0.02436169300859141, -0.021416083372332504, 0.006495157678150769, 0.033381268140646486, 0.0022226574135566185], [-0.022052619682476234, -0.01546366774389412, 9.401943123484335e-05, 0.014421832851332729, -0.017372633756829337, 0.04525865664317635, -0.02065705290445166, -0.00030058571627743105, 0.017299167707046082, -0.012877262200158354], [-0.036779330911218974, -0.014543434442598206, -0.005684671813732052, 0.008796738462375041, -0.01620934797052566, 0.07771554373187074, -0.011929403949060054, -0.005320777052033493, 0.002067852960325445, -0.017749870726882822], [-0.00950742208632807, -0.003983028192795102, 0.0004228525179183409, 0.0035761718965900036, -0.0061923188164654695, 0.0204637730937365, -0.00428860830117851, -0.0001332435022544294, 0.00159172214291488, -0.004809553702060557], [8.104090177770315e-05, -0.00034602196803517926, 0.000610049934743466, 0.0010223466556953714, 0.0008698399830913147, 0.000849654030448546, 0.00017723699542296259, 0.0012114372081163934, 0.0022298788900799154, -8.508037378131927e-05], [0.0011797657898652391, 0.0001963996353357264, 0.0009100412801516643, 0.0006577635652341709, 0.0002601824879421514, 0.0008625745349508184, 0.0011120746840127906, 0.0006151805948806024, 0.0006606493494323733, 0.0009458369002397733], [-0.0003328874638526286, -0.0012904704179602024, 0.0005534844211377403, -0.0012222370058373312, -0.0002495435199218649, -0.0009753016349624517, 0.000253563187770427, 0.006479909094104378, 0.0006110675131086403, -0.003030045156455372], [-0.0035535175885518205, -0.002072976706802388, 0.002638123277543263, -0.0046698599162264785, -0.0018443767841315095, -0.0035664756968577334, 0.0010254603216877066, 0.02196759533155171, -0.0010491866800362325, -0.011279791629053737], [-0.008290435111369631, -0.004835803841215557, 0.007748224839836379, -0.0021759016010121338, -0.0019110647940327136, -0.004961492855281907, 0.0009955032329710574, 0.03522064363147678, -0.005433868173974216, -0.02283620916845191], [-0.01431543152940154, -0.0052984100041932715, 0.01329531023064285, -0.0048149656325024446, -0.004169183331352098, 0.0010913550030083171, 0.00012843069134164253, 0.03583351502071773, -0.001550256425454595, -0.022600123577879494], [-0.014350767731637806, -0.003257447863314946, 0.008012960478341893, -0.010550890302055702, -0.009442724028034316, 0.007339299577054993, -0.0009628540578274728, 0.011857682242098887, 0.008119533041175547, 0.0036983757277204514], [-0.002344134511110726, -0.0016968419253538104, -0.009304350792681057, -0.010245769288407444, -0.010376528393815662, 0.009576532247653891, 0.0049695335493099456, 0.006290728320861904, 0.01348241073966211, 0.004760663598084428], [0.004582547701068257, -0.0005544139932159043, -0.005134048755526969, -0.019198790670485227, -0.010462835275159166, 0.013183820695455902, 0.004335859840954169, 0.0005023075386530767, 0.013676327484273765, 0.015370345744018183], [0.0025926884675430057, -0.0008810291294043683, -0.004186338243060747, -0.020871065898600914, -0.006605213232488811, 0.005477880045790721, -0.003878341024313015, -0.005947729075774876, 0.011963195297761606, 0.018672210157227965], [0.0007073048648111356, -0.005845728465231967, -0.009947462188447557, -0.020727598435255064, -0.007456386147431062, 0.014663891924062507, 0.004391190081415582, -0.00493889178097955, 0.014577978478625481, 0.012611556436811666], [0.00791425914091051, -0.0026225441815234413, -0.01097916150145052, -0.025767975803019687, 0.0047520064806583885, 0.007493883146832342, -0.002818228366361192, -0.0037027348063629977, 0.014993548493692341, 0.013736342516668035], [0.004313284941745123, -0.01036756065614752, -0.013564101389276492, -0.02730245781164982, 0.015444670715457404, 0.01578584943879768, -0.006251884766162762, -0.004038472214677736, 0.02845038247564667, 0.0015355597144541], [-0.00512242694205387, -0.026600625284130677, -0.019511995465699254, -0.02018230058250957, 0.013602523779964919, 0.012819412167775173, 0.0014378073923131676, -0.0004148395845961447, 0.03960339545129986, 0.0011819156681523117], [-0.0011773568005129318, -0.019767412493223002, -0.025640953391961836, -0.003146538418141418, -0.003719437657802267, 0.01574225335168188, 0.013511298495897618, 0.003992269769665763, 0.02384487570925957, 0.002086737281966711], [-0.019503709019166444, 0.056599830842242224, -0.02690196281393585, 0.024512140180004343, -0.009650097787735958, -0.007723546415971146, -0.010007318473782981, -0.008276295173087745, -0.009944466706331343, -0.005837956897554098], [-0.011075155357313243, 0.032581658566737656, -0.002714749447115259, 0.034306083346882024, 0.003593469330973576, -0.020756714901210966, -0.02457828607208073, -4.7082942051572486e-05, -0.0232793061462212, 0.009592747286265302], [-0.0065284137312786915, -0.023647313489228314, 0.010937770910156049, 0.020282166842258822, 0.024925106021955613, -0.013068846447192275, -0.005314370592664151, 0.011262214068955466, -0.015219697066722774, 0.005647354887492914], [0.001714731829438983, -0.008069877460891606, -0.002109586230071395, 0.009049199320348486, 0.010652640821903493, -0.029271231865210114, -0.012491284819767825, 0.01116965322553106, 0.003401686419449987, 0.010784206237189724], [0.005038311765062733, 0.002393898911568608, -0.002145797467951274, 0.0010484358244425796, 0.0019215376999875927, -0.029672334060960776, -0.009711821880175636, 0.01491343369652604, 0.016783328754821848, 0.00406624812202663], [0.014091458310123482, -0.0022249995913681334, 0.003818833950570543, 0.0023507127736778406, 0.004891492843057698, -0.034945822244486294, -0.014564540368057478, 0.004916221063322319, 0.013347824621504223, 0.008214091470985707], [0.019678916919964533, 0.00047875158622233237, -0.0021146384533177053, 0.0025322715563844997, -0.004314313941091809, -0.03951732231938087, -0.012347506311737205, 0.005297367523446558, 0.010168195272936501, 0.018769698284096727], [0.02009285491851176, 0.005481428940073268, 0.0034767452926425793, -0.012960255372129392, -0.003974698702447888, -0.034300073906655015, -0.007969447639714938, 0.004493988317258095, 0.013571138476193473, 0.011005359883459919], [0.02220679767847574, 0.005632641498819911, 0.003444276138274356, -0.007323873296916673, -0.006420375229578586, -0.051163286037182024, -0.016079386076714705, 0.0074578173534430225, 0.023743555063177872, 0.01765669755743487], [0.037228706485403905, 0.004425642160575114, -0.0025242869354854297, -0.00461388400269662, -0.006553746684125657, -0.05553650440222822, -0.014595716337620223, -0.0033750314328886083, 0.02682869575629812, 0.011804674903283893], [0.00422677550262709, -0.0032966149448524404, 0.006033388495611003, 0.008935477297646727, -0.009578044444658833, -0.02360572834301171, -0.01426690643529099, 0.0019270044173695963, 0.023558237600213555, 0.0003334685517349784], [-0.020408780438029028, -0.008652025015136748, -0.00019667722181070034, 0.006874586734779211, -0.010496408222907112, 0.03225173470008384, -0.008377189041047612, -0.001946470918310452, 0.011503394340368272, -0.011069264609805476], [-0.0044060391161452345, -0.0013010806347662869, 0.0008952357809589895, 0.0026931549552420557, -0.0022460911756968546, 0.009946374463568466, -0.002912528626068696, -0.0005123506293503723, 0.004933850985720363, -0.0034190761406595457], [-0.00025799785971735144, 0.0004355835321464934, 0.0010703905337038576, 0.0005651458730237494, 0.00032354296607729245, 0.0013895841780028418, 0.0008432757725625231, 0.00031334129802319225, 0.0014860007389055768, -0.00024104848153718496], [0.0007458372540021863, 5.846092113589597e-05, 0.0011148583465736622, 0.0004836722297773172, 0.0010263962359229072, 0.0006984670189774321, 0.00026356372804455354, 0.0012757112990059783, 0.0008076530543892713, 0.0001982889444386478], [-4.946408735256143e-05, -0.0006036112281538671, 0.0011511256387001234, -0.000900375941343279, -0.0011798235780456116, -0.000529451571296616, -0.0002965100912332617, 0.004723772437399704, 0.0009347499807042107, -0.0022225710550829937], [-0.0029095999555255572, -0.0027845157297862458, 0.003933127882814045, -0.0037620606805065164, -0.002509204427870408, -0.004517453658827569, -0.00018462059671965611, 0.018644304033566476, 0.00044342111722665215, -0.009259378121661919], [-0.007850681784452761, -0.004616884324133777, 0.008375305472896825, -0.0069569271290643815, -0.006674322300057736, -0.002717866737182593, 0.00023600587538577378, 0.03321064864844393, -0.00015216299275608484, -0.017352526615032546], [-0.019325203523886263, -0.00883219236471203, 0.013797915742429282, -0.009113682568498274, -0.016605562730153695, 0.004430279623415971, -0.003863915002398369, 0.03092383652013003, 0.0030995283161578398, -0.004766389139964529], [-0.012770842907144449, -0.006753404781257638, -0.005111261852939004, -0.009259152362686611, -0.017569045205211867, 0.0154825328215523, -0.0036467500044098555, 0.003380046830165637, 0.007064012792279238, 0.02082407499868867], [0.0013258090150485653, 0.0009980961574919077, -0.019199290653812224, -0.012504357268795415, -0.010477672393478344, 0.021280538301995423, 0.007228760200041896, -0.008704348896184714, 0.0019990750221997584, 0.023631311505931386], [0.0010720104217063898, 0.003889141108329288, -0.008858387410483223, -0.018213434496246704, -0.006437269997227777, 0.01436422536484513, 0.0034888970341307906, -0.0025135749740633198, -0.0022295704278213883, 0.017496458728930766], [0.001774426672292476, 0.002079695598976822, -0.005542865035211127, -0.014176322705725834, -0.0013493746394981016, 0.014683868813529274, -0.0013271129574021032, -0.0047498864623999595, -0.0060190480816049025, 0.01182753143636019], [0.0021015092536833466, -0.006592292035890227, -0.014050703479666913, -0.008982224301552528, 0.005414305526014662, 0.004824455565862426, 0.0009732300271708767, -0.01140559285405646, 0.007108111128720643, 0.015389915370704353], [0.007849142764959004, -0.004708435426491962, -0.014026223055280788, -0.0031113997187658614, 0.012367298052791395, 0.012615756139141494, -0.01071001634119947, -0.012614036226626787, 0.004307358205876392, 0.008613369807359696], [-0.006718904666266868, -0.005462114837581195, -0.027859727747457957, -0.007892578952949906, 0.01015417019538289, 0.020369425255507886, 0.004368001015931717, -0.006157089749012998, 0.013901579995223269, -0.006503472810109308], [-2.9711034624276645e-05, -0.0444214338011751, -0.026995254289563776, 0.0065061929663917575, -0.0047634202351078325, 0.01727599811815187, 0.015480319003989832, -0.00871046897883641, 0.041304434513527714, -0.004786013056864807], [-0.005906785897811964, -0.021932505289285004, -0.02807395965288741, 0.014930636035037376, 0.014784847719535022, 0.021311844025140414, 0.008396189767997404, -0.012713693979480814, 0.029798511490813997, 0.001915787460228028], [-0.03550315873104431, 0.09973682466735571, -0.038592237638465705, 0.01949604110809258, -0.022998871959289416, -0.0027010434437767248, -0.019545533529226573, -0.0328395115396374, -0.002252565046588768, -0.0041232840707454135], [-0.017677713943320586, 0.014200353396982194, -0.003224034369202774, 0.013063268350601965, 0.002209355672057071, -0.001408433472628005, -0.0023902672859940194, -0.010464357259364048, 0.0009886859199715757, 0.017036031469890342], [-0.016584760983910863, -0.030402638506149177, -0.0022443840760336016, 0.01747301487579074, 0.016589473360412815, -0.007044503743735584, 0.004522607072791457, 0.006407406731791605, 0.00271289502973747, 0.014086490401653572], [-0.018591418000153122, -0.01350223324196903, -0.007163782767036423, 0.002786773167796926, 0.013706454810982802, -0.01384801917994018, -0.009180760285428134, 0.007563012355813598, 0.008072416450330648, 0.008739591511836212], [-0.016245700417447252, 0.0064042842374118876, 0.00027371595154680696, -0.002619708677871888, 0.006482560277902263, -0.0064791170924639995, -0.001575365349378064, 0.007707980606996965, 0.007565760960373208, 0.007536004665086558], [-0.006102776778575894, -0.0008529016827942717, 0.007279399076492582, -0.004181170525415713, -0.005636353583842464, -0.015920912958416696, 0.0017804994783172372, -7.438960066065154e-05, 0.012562637841122033, 0.013233566280296495], [0.004191464460251281, 0.002965096537612308, 0.003479616928232844, -0.002469003684853673, -0.011072757630329758, -0.009928716827955637, 0.001102675873227636, -0.0003279673132133105, 0.0064409398943359375, 0.01366150052173624], [0.009483461587978624, 0.004290066277123395, -0.0013111490814795464, -0.014190429023641, -0.013550011223343318, -0.016527568716308682, 0.010801970753863398, -0.00450924521647706, 0.01124965061299483, 0.016961705767826563], [0.026919671080655527, 0.006109348165488784, -0.013442663754416008, -0.011361489342620072, -0.008396970230283287, -0.03630895582575848, 0.007845858619303722, -0.008248734533712117, 0.0018544200766559236, 0.0279911612307644], [0.04507129461995705, 0.007505280334831795, -0.021997159357813132, -0.007058432778206582, -0.0007074422955992956, -0.05789428327749168, 0.006372842312728321, -0.012774861054583501, 0.004383319422386857, 0.017011742576606887], [0.01316840416166164, -0.00038048686942594316, 0.0002604793391735621, 0.007578615399911067, -0.0016422591693139113, -0.04086891779197239, 0.004646909581150381, -0.002365263447103339, 0.0034009942486979846, 0.0027402662552168406], [-0.008620499025204576, -0.004942732497339774, 0.008109648902076362, 0.006946478770528165, -0.004963147976903007, 0.006299265866767141, -0.0024402248995096833, 0.0016715879449251925, 0.006859685106269963, -0.0067209603548930835], [-0.0022623935373672363, -0.0010212033869153845, 0.004884560944266066, 0.0015970944329182296, -0.0010164745558335628, 0.003316768869534476, -0.004248750453444972, 0.0014706478018401746, 0.0038899509607581875, -0.0024999775835311913], [0.0009480440903693914, 0.0008376800798245424, 0.0007716971191865891, 0.0005056663037758109, 0.000708369820247546, 0.0006720038912380658, 4.743045779262427e-05, 0.0006348351368335865, 0.0011563525405968713, 0.00023896463567911838], [0.0006527189240960664, 0.0003843636556152299, 0.0010249431881852189, 0.0005900554541420703, 0.00043258648510528336, 0.000409364397019392, 0.0003772612755783263, 0.0010652880721465443, 0.000460534478440662, 0.0008584253299788517], [0.0012284347842794578, 0.0004914885762951594, 0.000563538827290205, 2.5015572268247805e-06, 0.00016147261288162028, 0.0004904329386868155, -0.0001665969753011451, 0.002743392478372522, 0.0011479092464691922, -0.0001234330187580761], [-0.0014641415012707525, -0.0006717723327307623, 0.002141394953283866, -0.0017915595388758188, -0.002218641555400234, -0.002672764800251737, 0.0006103792635462293, 0.011619968426128167, 0.0009730970152959286, -0.005325950802566658], [-0.007334670660437913, -0.004314331825979736, 0.005436616561152411, -0.006510364810295124, -0.00791633820971072, -0.0008083088597029976, 0.00031407350425746955, 0.0215431293572035, 0.00037190798178031486, -0.007467037327318819], [-0.01983979042076341, -0.008175258228787405, 0.006307682134000752, -0.010508242944782201, -0.010011918894112534, 0.007625394574290137, -0.005115104388681306, 0.014138467132284087, -0.00121822871796815, 0.01439222180345853], [-0.0037604674508407497, -0.005514384228874147, -0.017475537341624745, -0.0045269061039046755, -0.004734604027311571, 0.019120178399574726, -0.002710157234541594, -0.014611403310972073, -0.009444745527950478, 0.03073194889759234], [0.0030884552162764815, -0.0007349509643441819, -0.022874260178298526, -0.002683065700341367, 0.0063118271692116585, 0.014708652535334885, 0.007590939963175989, -0.015329591316429024, -0.014770060162713141, 0.020650435184610443], [0.0043564518433955686, -0.0016414997615305784, -0.016360911211663262, -0.003973987900433092, 0.010346699078192353, 0.010370439200302133, -0.00047438433602087996, -0.012001742640767806, -0.013455204380236518, 0.014204606690371454], [-0.004588544112790089, -0.00036964359092114834, -0.016547952623880816, -0.00036979819444691675, 0.007850404383997645, 0.01012581629139327, 0.005392026323362505, -0.010299713361451444, -0.00803391124740883, 0.01612786872173882], [0.005885699727441803, -0.006553697183332264, -0.0161903347684, -0.006781342524319716, 0.014629082136455373, 0.012531060520743107, 3.2398669000171447e-06, -0.014318718835646085, -0.002814339501355981, 0.010829221605091963], [0.008026027244413687, -0.0015310831664381958, -0.017441192483382256, -0.002945799828234049, 0.023599351428478854, 0.01331093480383787, 0.0048956079763795785, -0.010230758791965841, -0.02295385378293402, 0.005984853599984875], [-0.0010875598112538932, -0.008503886109868894, -0.017254741085544194, 0.003967775181551641, 0.003894707465181223, 0.013663324850366554, 0.015395003091957418, -0.012700142446935677, -0.002902449816456345, -0.0028847860275301052], [-0.010632170623614965, -0.07094159588667837, -0.007832900426612329, 0.035932105110519016, -0.010243734845642045, 0.017278759098212946, 0.016315444293241287, -0.006964698401714039, 0.04526164223766394, 0.0020191824812319094], [-0.016299917576164002, 0.01498864749400495, -0.0074645838914351, 0.00907175949088138, 0.011186551161469556, 0.005412386126382536, -0.0034945720269955365, -0.010593129204219835, 0.019373699913374436, -0.0054088434233560126], [-0.031585555036681874, 0.08726035347363802, -0.0057632138653796496, -0.010700588887488033, -0.02968414856384251, -0.0073357193971564085, -0.015573323521386878, -0.035153998081454, -0.0055762149941964555, 0.009105572579707117], [-0.012025919200850527, -0.002989340154384247, -0.006908046781504487, -0.011196487561040459, -0.000522516417584173, -0.0018626684885753302, 0.012738302724884114, -0.0035855222425757076, 0.016779094573678887, 0.02137703775882002], [-0.012595923949663402, -0.03005369356637135, -0.004488480622244955, 0.025689810616150235, 0.009681028081972012, -0.00388303729986663, 0.0023004272401689826, 0.0021955285022716414, 0.005105271779817301, 0.013844176463006565], [-0.026867903227919453, -0.01934631650759778, 0.0013426949829548835, 0.013490369461208889, 0.01803105852661123, -0.012812858186250276, -0.002430287401160801, 0.007246033885439838, -0.004905800661367493, 0.012901369182217128], [-0.023430146297468635, 0.005743318645219648, 0.0006326109728368239, 0.005882554595893292, 0.0009033662972156497, 0.0031555083118626976, 0.010771684504991696, -0.006559012054612392, -0.004831500038930049, 0.01729574602473279], [-0.018011172907579368, 0.0020901768106043276, -0.0010458134141021107, -0.005255377149763879, -0.008812772687789667, 0.00502562033524941, 0.010540433835891745, 0.002274358874393691, -0.004388098908894794, 0.01940031450128024], [-0.011436883891147293, 0.0046377496148662795, 4.5976524099157934e-05, 0.00024113877107922142, -0.0024027262240761114, -0.0018744414528131716, 0.003178306611932119, 0.0008522476177417193, 0.0007428853147222854, 0.008875218640739554], [0.013280515805775597, 0.0011877377640565063, -0.016313742081481668, -0.006227906879810533, -0.004325841294310868, -0.011547080144153793, 0.01525865293627631, -0.003350062639938176, -0.005309116807700612, 0.008219608567361902], [0.031918467962076126, 0.006774510476735473, -0.027712711003312435, -0.011349604403561716, 0.0031144513802806462, -0.015706791227342767, 0.02166860077221079, -0.005580420191933232, -0.010609091065210637, 0.008316984641342296], [0.03466304090595753, 0.004584642341609238, -0.02781081560830305, -0.0009363647248262837, 0.003776052156675966, -0.027867979958124078, 0.028521159696344403, -0.010142542381433866, -0.015214962443293447, -0.0006940197921044794], [0.0027056430695965488, -0.007078694339141756, -0.007164649323632812, 0.011091983893125443, -0.006043279677684852, -0.012234842186012132, 0.02003437514864323, 0.0007640498128659426, -0.013363304521669981, -0.007444378245073494], [-0.007679876558696549, -0.0075249645245760175, 0.014589501139923829, 0.0044088234350878166, -0.0056782818738704555, 0.0024899831951294333, -7.473123614831061e-05, 0.0033380157708510607, 0.0009517976376726917, -0.0049635349236881185], [-0.0002588504593681237, -0.0021262245706769336, 0.01038213986990393, 0.0005730778696925647, -0.0010728472298062995, 0.00028353548756931333, -0.005732136588301684, 0.00045683033844394504, 0.001482608062763014, -0.0002985698505889142], [0.0008858501005686223, -0.00014634328289334184, 0.0033654258758546106, 0.0003271454859975148, 0.00033539371702694473, -0.0002271726599014333, -0.0009622944287021568, 0.0007848676529112913, 0.0007406787225174411, 0.0007802660041754181], [0.0009826003294251618, 0.0008183726142697582, 0.00032578798374196773, 0.0002694559032426041, 0.0001894537508826252, 0.0004152170514088967, -0.00012823851623674023, 0.0008788442626729576, 0.0004072277189810304, 7.176739166989258e-05], [0.00036778742173304975, 0.0002592884150091018, 0.0006119737086474273, 0.00042348524062191793, 0.0005613168735910059, 4.113978622945291e-05, 0.0006200598595958141, 0.0008595500939463446, 0.0012464013472453885, -0.0001612197070936121], [-0.00021840212465170668, 8.181903413268246e-05, 0.0019375943122211686, -0.0011302813170717318, -0.0015078972238464728, -0.0007004159068567813, 0.0005756364267750369, 0.0054716053974857145, 0.001384281341671485, -0.002158913930480975], [-0.008470844270272596, -0.0013403751071261233, 0.0013120652938799133, -0.0029252746223041655, -0.00329460937182375, 0.0002444677033210243, 0.0010671384133672096, 0.011987546373998565, -0.0001323788451211243, -0.0010567111850784275], [-0.017988237693614267, -0.005042376106843221, 0.0021615508942678823, -0.002346337541825808, 0.01108345323943275, 0.004130166037805771, -0.006445618667199643, 0.0006979795313792201, -0.004852134278817703, 0.011901910372597581], [0.00658677596242599, -0.004215659074227141, -0.019415420171775995, 0.002002136543669373, 0.025855049885795903, 0.0002601143020973429, -0.00737857863467386, -0.018806395600349777, -0.013157600976899744, 0.012730934275182723], [0.009480265667805401, -0.0011591781915074718, -0.015683284260334333, 0.0027201597703294046, 0.03544425308569474, -0.007557072956978671, 0.001173646978526018, -0.017097171978295325, -0.02027203996528917, 0.00675677513224203], [0.010162316184324695, -0.0012488103986016427, -0.010480704201042095, -0.00041701016872613966, 0.027750921536403683, -0.0075534792709489925, 0.0025684145910528327, -0.012209998256226083, -0.015172602295502597, 0.0019245524285495593], [0.006435118108868689, 0.000696712047311764, -0.010093562306420563, 0.002684416741758301, 0.020100987748923778, -0.0031040416897875184, 0.0008401570999289451, -0.011253299660601384, -0.013587448888992059, 0.007719812439737154], [0.012235651247404791, -0.004791415729276255, -0.008666705586782399, 0.003889164204117203, 0.012625880917600828, 0.003589138790257704, 0.0033041703167256214, -0.016246681179444455, -0.01815064617727413, 0.011834510362454847], [0.019663856780990398, 0.005389690067341913, -0.0030997135232465355, -0.008094044513490448, 0.011056901465524838, 0.007340242541221848, 0.0033869889004194617, -0.01864157054409385, -0.02573454419664954, 0.006555621080352907], [-0.002917585777337647, -0.027242670049796063, 0.009005786294943098, -0.006879763853433055, -0.0015189181902482574, -0.000490503671907292, 0.021227154099575533, -0.021520812371244126, 0.012374269610218315, 0.0019176928570852206], [-0.015084380230767136, -0.05710254483446545, 0.006603182021279038, 0.020798080144979622, 0.011875831241872227, 0.015755619755894488, 0.007184442926581404, -0.003741265904511693, 0.02533128407587235, 0.011870249550591903], [-0.007817272521940418, 0.05494419606521535, -0.0043942812762704205, -0.019868210574374847, 0.0006251107105119415, -0.00443922386848264, -0.01914118714419541, -0.023317660996785027, 0.01395412338459399, 0.006432239159292927], [-0.026601925685340116, 0.044248638987764925, -0.005760975368420408, -0.006725440990267383, -0.024433728145160764, -0.011289047139731494, -0.0014906894700486748, -0.030602970948982917, 0.016225681992732707, 0.01785716417599354], [-0.003995513745701616, 0.013087914435964012, -0.012012966455847766, -0.002848394000460236, 0.0005257667763215386, 0.007958630571743962, 0.0024516565383993962, 0.00042805135837111066, -5.967317321534777e-05, 0.002795515574259874], [-0.01767363413888285, -0.0435832583837664, 0.001703552710022792, 0.025912534342677124, 0.009171726561506334, 0.001328747486251785, 0.0124034253648507, 0.008569163455839272, 0.0040070929548005965, 0.006180210057105248], [-0.024906124498086973, -0.011587730633478073, -0.0037677189128032334, 0.01848983490261508, 0.015645063177942568, -0.023600834730548335, -0.003842800338897424, 0.0012154597997815274, -0.0035608466846744177, 0.015417073783359854], [-0.016126025264039254, 0.007178633177831574, 0.0033994845565771246, 0.01571989036380924, 0.004766185538976102, -0.002424617148481395, 0.0028357499380753416, 0.0005813036484379649, -0.015411708506678357, 0.0066014941717901085], [-0.017627879743331114, -0.0017323758850610485, -0.0028683370187827816, 0.004864647535239589, 0.020107955258612857, -0.010021905201390322, 0.0014344065456011097, 0.010688904335132289, -0.008962451329775394, -0.005424150846772549], [0.00646972679454894, -0.0017008507564621764, -0.004262381634819955, -0.0017124573432203793, 0.01799725749883929, -0.009618366450840405, -0.0024922775613405376, 0.0017648044299071975, -0.007755591606173401, -0.008355063566373529], [0.02373360062669623, 0.00027221630194150005, -0.017401320468167183, 0.003704787232331198, 0.009595632086375013, -0.012280727252993243, 0.006862997222583314, 0.0009317269985628068, -0.008688251110636017, -0.008970561833555992], [0.014747089843269359, 0.0005782333701749314, -0.021335090364325883, -0.0024621196650523734, 0.012151100693829301, -0.008935951707420267, 0.02036961723517829, 0.008782754082557024, -0.015283775827466733, -0.008984835993160138], [0.018030842745492798, 0.00035572537610094806, -0.027086116837521663, 0.003576265658406531, 0.010894098349579853, -0.007608604055269896, 0.026549870115461855, 0.0011815690199553802, -0.01692463346774471, -0.013529222131632731], [-0.0013941083921915265, -0.004481506168046834, -0.018761831931998395, 0.014716179952775493, -0.009578862199807742, 0.005483936360613778, 0.020288160682557448, 0.0016993189498719086, -0.01011875250479295, -0.010804903755427498], [-0.009030952520213615, -0.006497891375002614, 0.01497324243068635, 0.002804395247984956, -0.00937572486565626, 0.0017996955973130532, 0.0045326927251733784, 0.005252331002367032, -0.0005716839640579575, -0.0025104890544148484], [-0.0015922160787570588, -0.0013282994478970083, 0.013285688208401944, -0.0024680275714135595, -0.0006417842978324552, -0.0013121785570333292, -0.005990775222168602, 0.0004526753013480557, -0.0003057790091816707, 4.045926655353051e-05], [0.0006455297203241241, 0.00018078266976603361, 0.0010566444946501189, -2.158254585208538e-05, 0.000332527434692231, -2.5666807861691237e-05, 0.0007736528966352308, 0.00017182093783775742, 0.0003685069819635523, 0.0012324901506126319], [0.0005648180561322956, 3.11323758472822e-05, 0.0005317056685756767, 0.0006243435311873093, 0.0007350735860812757, 0.0009619057339943344, 0.0007841548978396856, 0.0008274023712886398, 0.0002746014094401326, 0.0007459172399159532], [0.0002749688868268751, 0.00035399314034081176, -2.5548017408613972e-05, 0.0009379739142776568, 0.0006535276473901208, 0.0007083363070305158, 0.0013629390288630186, 7.351874669766549e-05, 0.0010659970663803701, 0.0011920877075721882], [0.0001967538483435695, -0.0009651315182371665, -0.0004767684924823544, 0.0014720828859212107, 0.0004243895082505316, -0.00044837783165221115, 0.0011866223096901145, 0.0019578311728425594, 0.0010985872487169152, -0.001222687426736242], [-0.010466967317712173, -0.002828053204856658, 0.0017908600597614872, 0.00041332105751532336, 8.28206068645049e-05, -0.00023557604324676184, -0.0013151718997379406, 0.008102213904770842, 0.001184601330871882, -0.002525239734323838], [-0.008575666118553451, -0.00428653182502039, 8.324714520930213e-06, 0.0030672635208551296, 0.017452640681971394, -0.0007344776317332347, -0.010700300979918797, -0.0067729920304753066, 0.0003863025246252624, 0.0034132599980172228], [0.01568833490868197, -0.0031977452572192824, -0.004559590368199705, 0.01179802542428722, 0.037201111583867214, -0.021907621781669204, -0.01323755625653695, -0.017573870519146002, -0.008005926263892675, -0.004618557256416766], [0.004450710162154113, 0.0009542671108279761, -0.004186693537452842, 0.007660600087270293, 0.03944103887998557, -0.02135641220412587, 0.0022916787961570267, -0.00261299070350471, -0.0100856043609633, -0.008379297731280648], [0.0123493128955364, -0.0008553418950675968, -0.004537435149322993, -0.001636848358001868, 0.02839061226932037, -0.016079210031275163, 7.366127822085893e-05, -0.007764506575876975, -0.003419882255618601, -0.004926182668711275], [0.015486135621939142, -0.002821244686863899, -0.001760811047036427, -0.007626010281989958, 0.025635584702411143, -0.004089075343358276, -0.0063094617136869435, -0.01761875983917346, -0.009452442809740856, 0.0023464663678459913], [0.017525185296597925, -0.00250283717931173, -0.0028678561769483325, -0.007325363601469932, 0.006673890250176589, -0.003547722529485674, 0.0060203391445005855, -0.013956373696687311, -0.011271911178594411, 0.009240642725755033], [0.015931319603447926, -0.0025373596303813464, 0.001982484557413602, -0.010926165538958206, 0.0023571895956597706, -0.0019014995423088726, 0.011433991684426005, -0.01193333739030135, -0.016984775081477336, 0.010372179887000989], [-0.008422279439588704, -0.025974497063303254, 0.007683716290313562, -0.005466784168712489, 0.016279322353070752, -0.004301963254576423, 0.0160328071345063, -0.011222087596815977, 0.005400801377188515, 0.002452435688206473], [-0.01345648985210779, -0.026362899564228857, 0.00432675712587633, 0.012882785304256801, 0.025454881564634588, 0.007637550855181523, -0.0035581272172129836, -0.003933192852450092, 0.013176995333251429, 0.00854590677323491], [-0.015711369393018836, 0.042677149853927523, 0.008276249347826415, -0.010515766061772288, -0.0025548553226675875, -0.012153255617919743, -0.013310383490356455, -0.0329591963731352, 0.028007244560619298, -0.0015767500710173784], [-0.027018674112930716, 0.032789183510108094, -0.010817272352426991, -0.002686960633999205, -0.001318668833980577, -0.022174521508250767, 0.007126733960149815, -0.014405592972113303, 